Language model created by QuickLM on Sun May 23 00:41:41 EDT 2010
Copyright (c) 1996-2000
Carnegie Mellon University and Alexander I. Rudnicky

This model based on a corpus of 349 sentences and 389 words
The (fixed) discount mass is 0.5


\data\
ngram 1=389
ngram 2=734
ngram 3=779

\1-grams:
-0.9378 </s> -0.3010
-0.9378 <s> -0.2478
-3.4806 AIDS -0.2478
-3.4806 AIR -0.3009
-3.4806 ALLERGY -0.2478
-3.4806 ALUMINUM -0.3009
-3.4806 AM -0.3007
-3.4806 AN -0.3000
-3.1796 AND -0.2997
-3.4806 ANTACID -0.2478
-3.4806 ANTIBIOTIC -0.2478
-3.4806 ANTIDIARRHEAL -0.2478
-3.4806 ANTIPERSPIRANT -0.2478
-3.4806 APPLES -0.2478
-3.4806 APPLESAUCE -0.2478
-3.4806 ARSENIC -0.2478
-3.4806 ASBESTOS -0.2478
-3.4806 ASPARAGUS -0.2478
-3.4806 ASPIRIN -0.2478
-3.4806 AUTOMOTIVE -0.2478
-3.4806 AVOCADOS -0.2478
-3.0035 BABY -0.3000
-3.4806 BACON -0.2478
-3.1796 BAGELS -0.2478
-3.0035 BAGS -0.2478
-3.4806 BAKE -0.3009
-3.1796 BAKED -0.3007
-3.1796 BAKING -0.2476
-3.4806 BALLS -0.2478
-3.4806 BALM -0.2478
-3.4806 BANANA -0.3002
-3.4806 BANANAS -0.2478
-3.4806 BAND -0.3009
-3.4806 BARS -0.2478
-3.4806 BASIL -0.2478
-3.4806 BATH -0.3006
-3.4806 BATHROOM -0.3007
-3.4806 BATTERIES -0.2478
-3.4806 BEANS -0.2478
-3.1796 BEEF -0.2478
-3.4806 BEER -0.2478
-3.4806 BERRIES -0.2478
-3.4806 BEVERAGES -0.2478
-3.4806 BLACK -0.3007
-3.4806 BLEACH -0.2478
-3.4806 BLEU -0.3000
-3.4806 BOUILLON -0.3009
-2.7024 BREAD -0.2476
-3.4806 BREADS -0.2478
-3.4806 BREAKFASTS -0.2478
-3.4806 BROCCOLI -0.2478
-3.4806 BROTH -0.2478
-3.4806 BROWNIE -0.3006
-3.4806 BULBS -0.2478
-3.4806 BUNS -0.2478
-3.4806 BURGER -0.3003
-3.4806 BURGERS -0.2478
-3.4806 BURRITOS -0.2478
-3.1796 BUTTER -0.2478
-0.9517 BUY -0.2429
-2.8785 CAKE -0.2476
-3.4806 CANCEL -0.2478
-3.4806 CANDY -0.2478
-3.4806 CANNED -0.3009
-3.4806 CARCINOGENS -0.2478
-3.4806 CARD -0.2478
-3.4806 CARROTS -0.2478
-3.1796 CAT -0.3003
-3.4806 CATFISH -0.2478
-3.4806 CAULIFLOWER -0.2478
-3.4806 CDRS -0.2478
-3.4806 CELERY -0.2478
-3.4806 CEREAL -0.2478
-3.4806 CHAMPAGNE -0.2478
-3.4806 CHARCOAL -0.2478
-3.4806 CHEDDAR -0.2478
-2.6355 CHEESE -0.2478
-3.4806 CHERRIES -0.2478
-3.1796 CHICKEN -0.2478
-3.1796 CHILI -0.2470
-3.4806 CHIP -0.3009
-3.1796 CHIPS -0.2478
-3.4806 CHLORIDE -0.2478
-3.4806 CHOCOLATE -0.3007
-3.4806 CIGARETTES -0.2478
-3.4806 CILANTRO -0.2478
-3.4806 CINNAMON -0.2478
-3.1796 CLEANER -0.2478
-3.4806 CLEANING -0.3007
-3.4806 CLEANSER -0.2478
-3.4806 CLUB -0.3006
-3.4806 COCOA -0.2478
-3.4806 COFFEE -0.2478
-3.4806 CONCENTRATE -0.2478
-3.4806 CONDIMENTS -0.2478
-3.4806 CONDITIONER -0.2478
-3.4806 CONDOMS -0.2478
-3.1796 COOK -0.3007
-3.1796 COOKIES -0.2478
-3.4806 CORN -0.3007
-3.4806 COSMETICS -0.2478
-3.4806 COTTAGE -0.3000
-3.4806 COTTON -0.3009
-3.4806 CRAB -0.2478
-3.4806 CRACKERS -0.2478
-2.7024 CREAM -0.2466
-3.4806 CROISSANTS -0.2478
-3.4806 CRUMBS -0.2478
-3.4806 CUBES -0.2478
-3.4806 CUCUMBERS -0.2478
-3.4806 DAIRY -0.2478
-3.4806 DELI -0.3005
-3.4806 DEODORANT -0.2478
-3.4806 DETERGENT -0.2478
-3.4806 DIAPERS -0.2478
-3.4806 DIP -0.2478
-3.4806 DISH -0.2478
-3.4806 DISHWASHER -0.3006
-3.4806 DOG -0.3005
-3.4806 DOGS -0.2478
-3.4806 DONUTS -0.2478
-3.4806 DRESSING -0.2478
-3.4806 DRIED -0.3006
-3.4806 DRINK -0.2478
-3.4806 DVDRS -0.2478
-3.1796 EGGS -0.2478
-3.4806 ENGLISH -0.3009
-3.4806 ENVELOPES -0.2478
-3.1796 ES -0.2476
-3.4806 EXIT -0.2478
-3.4806 EXTRACT -0.2478
-3.1796 FACIAL -0.3007
-3.4806 FAKE -0.3007
-3.4806 FEMININE -0.3007
-3.4806 FETA -0.2478
-3.4806 FILTERS -0.2478
-3.4806 FISH -0.3009
-3.4806 FLEA -0.3009
-3.4806 FLOSS -0.2478
-3.4806 FLOUR -0.2478
-3.4806 FLOWERS -0.2478
-3.4806 FOIL -0.2478
-2.8785 FOOD -0.2478
-3.4806 FOODS -0.2478
-3.4806 FORMULA -0.2478
-3.4806 FREEZER -0.3006
-3.0035 FRESH -0.2997
-3.4806 FRESHENER -0.2478
-3.4806 FRIES -0.2478
-3.4806 FROZEN -0.2478
-3.0035 FRUIT -0.2471
-3.4806 FRUITS -0.2478
-3.4806 GARBAGE -0.3006
-3.4806 GARLIC -0.2478
-3.4806 GEL -0.2478
-3.4806 GIN -0.2478
-3.4806 GINGER -0.2478
-3.4806 GLASS -0.3007
-3.4806 GLUE -0.2478
-3.4806 GOAT -0.3000
-3.4806 GOODS -0.2478
-3.4806 GRANOLA -0.3009
-3.4806 GRAPEFRUIT -0.2478
-3.4806 GRAPES -0.2478
-3.4806 GRAVY -0.2478
-3.4806 GREENS -0.2478
-3.4806 GREETING -0.3009
-3.4806 GROCERIES -0.2478
-3.4806 GROUND -0.3007
-3.4806 GUM -0.2478
-3.4806 HAIR -0.3009
-3.1796 HALF -0.2474
-3.4806 HAM -0.2478
-3.4806 HAND -0.3006
-3.4806 HEAD -0.2478
-3.4806 HEAVY -0.3002
-3.4806 HERBS -0.2478
-3.4806 HONEY -0.2478
-3.1796 HOT -0.3000
-3.4806 ICE -0.3002
-3.4806 ICECREAM -0.2478
-3.4806 ICING -0.2478
-3.4806 INSECT -0.3009
-3.4806 INSTANT -0.3007
-3.4806 ITEMS -0.2478
-3.4806 JAM -0.2478
-3.4806 JELLY -0.2478
-2.8785 JUICE -0.2476
-3.4806 KETCHUP -0.2478
-3.4806 KITCHEN -0.2478
-3.4806 KIWIS -0.2478
-3.4806 LEMON -0.2478
-3.4806 LEMONS -0.2478
-3.4806 LETTUCE -0.2478
-3.4806 LIGHT -0.3009
-3.4806 LIME -0.3005
-3.4806 LIMES -0.2478
-3.4806 LIP -0.3009
-3.4806 LITTER -0.2478
-3.4806 LOBSTER -0.2478
-3.1796 LOTION -0.2478
-3.4806 LUNCHMEAT -0.2478
-3.1796 MAC -0.3006
-3.4806 MAGAZINE -0.2478
-3.4806 MARGARINE -0.2478
-3.4806 MAYONNAISE -0.2478
-3.1796 MEALS -0.2478
-3.4806 MEAT -0.2478
-3.4806 MEATS -0.2478
-3.4806 MEDICAL -0.2478
-3.4806 MEDICINE -0.2478
-3.4806 MELON -0.2478
-3.4806 MILK -0.2478
-3.4806 MINT -0.2478
-3.0035 MIX -0.2478
-3.4806 MIXERS -0.2478
-3.4806 MOISTURIZING -0.3007
-3.4806 MOP -0.3009
-3.4806 MOUTHWASH -0.2478
-3.4806 MOZZARELLA -0.2478
-3.4806 MUFFINS -0.2478
-3.4806 MUSHROOMS -0.2478
-3.4806 MUSSELS -0.2478
-3.4806 MUSTARD -0.2478
-3.4806 NAPKINS -0.2478
-3.4806 NECTARINES -0.2478
-3.4806 NETFLIX -0.2478
-3.4806 NEWSPAPER -0.2478
-2.7816 NIGHT -0.2478
-3.4806 NO -0.2478
-3.4806 NON-STICK -0.3007
-3.4806 NOTEPAD -0.2478
-3.4806 NUTS -0.2478
-3.4806 OATMEAL -0.2478
-3.4806 OFFICE -0.3009
-3.1796 OIL -0.2478
-3.4806 OLIVE -0.3007
-3.4806 OLIVES -0.2478
-3.4806 ONIONS -0.2478
-3.4806 ORANGES -0.2478
-3.4806 OREGANO -0.2478
-3.4806 OTHER -0.3007
-3.4806 OYSTERS -0.2478
-3.4806 PACKAGED -0.3007
-3.4806 PAIN -0.3009
-3.4806 PANCAKE -0.2478
-2.8785 PAPER -0.2476
-3.4806 PAPRIKA -0.2478
-3.4806 PARMESAN -0.2478
-3.4806 PARSLEY -0.2478
-3.1796 PASTA -0.2468
-3.4806 PASTRIES -0.2478
-3.4806 PEACHES -0.2478
-3.4806 PEANUT -0.3007
-3.4806 PEARS -0.2478
-3.4806 PENCILS -0.2478
-3.4806 PENS -0.2478
-3.1796 PEPPER -0.2478
-3.4806 PEPPERS -0.2478
-3.4806 PET -0.3007
-3.4806 PETS -0.2478
-3.4806 PICK-UP -0.2478
-3.4806 PICKLES -0.2478
-3.4806 PIE -0.2478
-3.4806 PITA -0.3002
-3.4806 PIZZA -0.3003
-3.4806 PIZZAS -0.2478
-3.4806 PLASTIC -0.3009
-3.4806 PLUMS -0.2478
-3.4806 POP -0.2478
-3.4806 POPCORN -0.2478
-3.4806 POPSICLES -0.2478
-3.4806 PORK -0.2478
-3.4806 POSTAGE -0.3009
-3.4806 POTATO -0.2478
-3.1796 POTATOES -0.2478
-3.4806 POWDER -0.2478
-3.4806 PRESCRIPTION -0.3009
-3.4806 PRESERVES -0.2478
-3.4806 PRETZELS -0.2478
-3.4806 PRINTER -0.3005
-3.1796 PRODUCTS -0.2478
-3.4806 PROPANE -0.2478
-3.4806 PROTECTION -0.2478
-3.4806 PROVOLONE -0.2478
-3.4806 RADIONUCLIDES -0.2478
-3.4806 RAZORS -0.2478
-3.4806 READY -0.3009
-3.1796 RED -0.3003
-3.4806 REFRIGERATED -0.3009
-3.4806 RELIEVER -0.2478
-3.4806 RELISH -0.2478
-3.4806 REMOVE -0.2478
-3.4806 REPELLENT -0.2478
-3.4806 RICE -0.2478
-3.4806 RICOTTA -0.2478
-3.4806 ROLLS -0.2478
-3.4806 RUM -0.2478
-3.4806 SAKE -0.2478
-3.1796 SALAD -0.2476
-3.4806 SALMON -0.2478
-3.4806 SALSA -0.2478
-3.4806 SALT -0.2478
-3.1796 SANDWICH -0.2476
-2.7024 SAUCE -0.2478
-3.4806 SAUSAGE -0.2478
-3.4806 SCRUBBERS -0.2478
-3.4806 SEAFOOD -0.2478
-3.4806 SEEDS -0.2478
-3.4806 SEND -0.3007
-3.1796 SHAMPOO -0.2478
-3.4806 SHAVING -0.3002
-3.4806 SHORTENING -0.2478
-3.4806 SHRIMP -0.2478
-3.4806 SLICED -0.3002
-3.4806 SLICES -0.2478
-3.4806 SNACKS -0.2478
-3.0035 SOAP -0.2478
-3.0035 SODA -0.2476
-3.4806 SORBET -0.2478
-3.4806 SOUP -0.2478
-3.4806 SOUR -0.3002
-3.4806 SOY -0.3002
-3.4806 SPAGHETTI -0.3003
-3.4806 SPICES -0.2478
-3.4806 SPINACH -0.2478
-3.4806 SPONGES -0.2478
-3.4806 SPORTS -0.3009
-3.1796 SPRAY -0.2478
-3.4806 SQUASH -0.2478
-3.4806 STAMPS -0.2478
-3.4806 STEAK -0.3002
-3.4806 STICKS -0.2478
-3.4806 STRAWBERRY -0.3005
-3.1796 STUFF -0.2478
-3.4806 SUBSTITUTE -0.2478
-3.1796 SUGAR -0.2476
-3.4806 SUNBLOCK -0.2478
-3.4806 SUPPLEMENTS -0.2478
-3.4806 SUPPLIES -0.2478
-3.4806 SWABS -0.2478
-3.4806 SWISS -0.2478
-3.4806 SYRUP -0.2478
-3.4806 TACO -0.3003
-3.4806 TAKE-OUT -0.3009
-3.4806 TAPE -0.2478
-3.4806 TEA -0.2478
-3.4806 THEMED -0.3007
-3.4806 TILAPIA -0.2478
-3.4806 TINNED -0.3009
-3.4806 TISSUE -0.2478
-3.4806 TOFU -0.2478
-3.4806 TOILET -0.3005
-3.1796 TOMATOES -0.2478
-3.4806 TONIC -0.2478
-3.4806 TOOTHPASTE -0.2478
-3.4806 TORTILLAS -0.2478
-3.4806 TOWELS -0.2478
-3.4806 TRAIN -0.2478
-3.4806 TREATMENT -0.2478
-3.4806 TREATS -0.2478
-3.1796 TUNA -0.2478
-3.1796 TURKEY -0.2478
-3.4806 UNDO -0.2478
-3.4806 VACUUM -0.3006
-3.4806 VANILLA -0.3009
-3.4806 VARIOUS -0.3009
-3.4806 VEGETABLE -0.3007
-3.1796 VEGETABLES -0.2478
-3.4806 VEGGIE -0.3009
-3.4806 VEGGIES -0.2478
-3.4806 VINEGAR -0.2478
-3.4806 VINYL -0.3009
-3.4806 VITAMINS -0.2478
-3.4806 VODKA -0.2478
-3.4806 WAFFLE -0.3006
-3.4806 WASH -0.2478
-3.4806 WAX -0.3005
-3.4806 WEATHER -0.2478
-3.4806 WHIPPED -0.3002
-3.4806 WHISKEY -0.2478
-3.4806 WHITE -0.3006
-3.0035 WINE -0.2478
-3.4806 WIPES -0.2478
-3.4806 WORCESTERSHIRE -0.3002
-3.4806 WRAP -0.2478
-3.4806 YEAST -0.2478
-3.4806 YOGURT -0.2478
-3.4806 ZUCCHINI -0.2478

\2-grams:
-0.3149 <s> BUY 0.0000
-2.8439 <s> CANCEL 0.0000
-2.5428 <s> COOK 0.0000
-2.8439 <s> EXIT 0.0000
-2.8439 <s> NETFLIX 0.0000
-2.8439 <s> NO 0.0000
-2.8439 <s> REMOVE 0.0000
-2.8439 <s> SEND 0.0000
-2.8439 <s> TRAIN 0.0000
-2.8439 <s> UNDO 0.0000
-2.8439 <s> WEATHER 0.0000
-0.3010 AIDS </s> -0.3010
-0.3010 AIR FRESHENER 0.0000
-0.3010 ALLERGY </s> -0.3010
-0.3010 ALUMINUM FOIL 0.0000
-0.3010 AM ES -0.1761
-0.3010 AN CHEESE 0.0000
-0.6021 AND CHEESE 0.0000
-0.6021 AND HALF -0.1761
-0.3010 ANTACID </s> -0.3010
-0.3010 ANTIBIOTIC </s> -0.3010
-0.3010 ANTIDIARRHEAL </s> -0.3010
-0.3010 ANTIPERSPIRANT </s> -0.3010
-0.3010 APPLES </s> -0.3010
-0.3010 APPLESAUCE </s> -0.3010
-0.3010 ARSENIC </s> -0.3010
-0.3010 ASBESTOS </s> -0.3010
-0.3010 ASPARAGUS </s> -0.3010
-0.3010 ASPIRIN </s> -0.3010
-0.3010 AUTOMOTIVE </s> -0.3010
-0.3010 AVOCADOS </s> -0.3010
-0.7782 BABY FOOD 0.0000
-0.7782 BABY STUFF 0.0000
-0.7782 BABY WASH 0.0000
-0.3010 BACON </s> -0.3010
-0.3010 BAGELS </s> -0.3010
-0.3010 BAGS </s> -0.3010
-0.3010 BAKE BREADS 0.0000
-0.6021 BAKED BEANS 0.0000
-0.6021 BAKED GOODS 0.0000
-0.6021 BAKING </s> -0.3010
-0.6021 BAKING POWDER 0.0000
-0.3010 BALLS </s> -0.3010
-0.3010 BALM </s> -0.3010
-0.3010 BANANA BREAD -0.0669
-0.3010 BANANAS </s> -0.3010
-0.3010 BAND AIDS 0.0000
-0.3010 BARS </s> -0.3010
-0.3010 BASIL </s> -0.3010
-0.3010 BATH SOAP 0.0000
-0.3010 BATHROOM CLEANER 0.0000
-0.3010 BATTERIES </s> -0.3010
-0.3010 BEANS </s> -0.3010
-0.3010 BEEF </s> -0.3010
-0.3010 BEER </s> -0.3010
-0.3010 BERRIES </s> -0.3010
-0.3010 BEVERAGES </s> -0.3010
-0.3010 BLACK PEPPER 0.0000
-0.3010 BLEACH </s> -0.3010
-0.3010 BLEU CHEESE 0.0000
-0.3010 BOUILLON CUBES 0.0000
-0.3802 BREAD </s> -0.3010
-1.0792 BREAD CRUMBS 0.0000
-0.3010 BREADS </s> -0.3010
-0.3010 BREAKFASTS </s> -0.3010
-0.3010 BROCCOLI </s> -0.3010
-0.3010 BROTH </s> -0.3010
-0.3010 BROWNIE MIX 0.0000
-0.3010 BULBS </s> -0.3010
-0.3010 BUNS </s> -0.3010
-0.3010 BURGER NIGHT 0.0000
-0.3010 BURGERS </s> -0.3010
-0.3010 BURRITOS </s> -0.3010
-0.3010 BUTTER </s> -0.3010
-2.8299 BUY AIR 0.0000
-2.8299 BUY ALLERGY 0.0000
-2.8299 BUY ALUMINUM 0.0000
-2.8299 BUY ANTACID 0.0000
-2.8299 BUY ANTIBIOTIC 0.0000
-2.8299 BUY ANTIDIARRHEAL 0.0000
-2.8299 BUY ANTIPERSPIRANT 0.0000
-2.8299 BUY APPLES 0.0000
-2.8299 BUY APPLESAUCE 0.0000
-2.8299 BUY ARSENIC 0.0000
-2.8299 BUY ASBESTOS 0.0000
-2.8299 BUY ASPARAGUS 0.0000
-2.8299 BUY ASPIRIN 0.0000
-2.8299 BUY AUTOMOTIVE 0.0000
-2.8299 BUY AVOCADOS 0.0000
-2.3528 BUY BABY 0.0000
-2.8299 BUY BACON 0.0000
-2.5289 BUY BAGELS 0.0000
-2.5289 BUY BAKED 0.0000
-2.5289 BUY BAKING 0.0000
-2.8299 BUY BALLS 0.0000
-2.8299 BUY BANANAS 0.0000
-2.8299 BUY BAND 0.0000
-2.8299 BUY BASIL 0.0000
-2.8299 BUY BATH 0.0000
-2.8299 BUY BATHROOM 0.0000
-2.8299 BUY BATTERIES 0.0000
-2.8299 BUY BEEF 0.0000
-2.8299 BUY BEER 0.0000
-2.8299 BUY BERRIES 0.0000
-2.8299 BUY BEVERAGES 0.0000
-2.8299 BUY BLACK 0.0000
-2.8299 BUY BLEACH 0.0000
-2.8299 BUY BLEU 0.0000
-2.8299 BUY BOUILLON 0.0000
-2.5289 BUY BREAD 0.0000
-2.8299 BUY BREAKFASTS 0.0000
-2.8299 BUY BROCCOLI 0.0000
-2.8299 BUY BROTH 0.0000
-2.8299 BUY BROWNIE 0.0000
-2.8299 BUY BUNS 0.0000
-2.8299 BUY BURGER 0.0000
-2.8299 BUY BURRITOS 0.0000
-2.8299 BUY BUTTER 0.0000
-2.3528 BUY CAKE 0.0000
-2.8299 BUY CANDY 0.0000
-2.8299 BUY CANNED 0.0000
-2.8299 BUY CARCINOGENS 0.0000
-2.8299 BUY CARROTS 0.0000
-2.5289 BUY CAT 0.0000
-2.8299 BUY CATFISH 0.0000
-2.8299 BUY CAULIFLOWER 0.0000
-2.8299 BUY CDRS 0.0000
-2.8299 BUY CELERY 0.0000
-2.8299 BUY CEREAL 0.0000
-2.8299 BUY CHAMPAGNE 0.0000
-2.8299 BUY CHARCOAL 0.0000
-2.8299 BUY CHEDDAR 0.0000
-2.8299 BUY CHEESE 0.0000
-2.8299 BUY CHERRIES 0.0000
-2.5289 BUY CHICKEN 0.0000
-2.5289 BUY CHILI 0.0000
-2.8299 BUY CHIP 0.0000
-2.8299 BUY CHOCOLATE 0.0000
-2.8299 BUY CIGARETTES 0.0000
-2.8299 BUY CILANTRO 0.0000
-2.8299 BUY CINNAMON 0.0000
-2.8299 BUY CLEANING 0.0000
-2.8299 BUY CLUB 0.0000
-2.8299 BUY COCOA 0.0000
-2.8299 BUY COFFEE 0.0000
-2.8299 BUY CONDIMENTS 0.0000
-2.8299 BUY CONDITIONER 0.0000
-2.8299 BUY CONDOMS 0.0000
-2.5289 BUY COOKIES 0.0000
-2.8299 BUY CORN 0.0000
-2.8299 BUY COSMETICS 0.0000
-2.8299 BUY COTTAGE 0.0000
-2.8299 BUY COTTON 0.0000
-2.8299 BUY CRAB 0.0000
-2.8299 BUY CRACKERS 0.0000
-2.8299 BUY CREAM -0.2632
-2.8299 BUY CROISSANTS 0.0000
-2.8299 BUY CUCUMBERS 0.0000
-2.8299 BUY DAIRY 0.0000
-2.8299 BUY DEODORANT 0.0000
-2.8299 BUY DETERGENT 0.0000
-2.8299 BUY DIAPERS 0.0000
-2.8299 BUY DISH 0.0000
-2.8299 BUY DISHWASHER 0.0000
-2.8299 BUY DOG 0.0000
-2.8299 BUY DONUTS 0.0000
-2.8299 BUY DRIED 0.0000
-2.8299 BUY DVDRS 0.0000
-2.8299 BUY EGGS 0.0000
-2.8299 BUY ENGLISH 0.0000
-2.8299 BUY ENVELOPES 0.0000
-2.5289 BUY FACIAL 0.0000
-2.8299 BUY FAKE 0.0000
-2.8299 BUY FEMININE 0.0000
-2.8299 BUY FETA 0.0000
-2.8299 BUY FILTERS 0.0000
-2.8299 BUY FISH 0.0000
-2.8299 BUY FLEA 0.0000
-2.8299 BUY FLOSS 0.0000
-2.8299 BUY FLOUR 0.0000
-2.8299 BUY FLOWERS 0.0000
-2.8299 BUY FORMULA 0.0000
-2.8299 BUY FREEZER 0.0000
-2.3528 BUY FRESH 0.0000
-2.8299 BUY FRIES 0.0000
-2.8299 BUY FROZEN 0.0000
-2.5289 BUY FRUIT 0.0000
-2.8299 BUY GARBAGE 0.0000
-2.8299 BUY GARLIC 0.0000
-2.8299 BUY GIN 0.0000
-2.8299 BUY GINGER 0.0000
-2.8299 BUY GLASS 0.0000
-2.8299 BUY GLUE 0.0000
-2.8299 BUY GOAT 0.0000
-2.8299 BUY GRANOLA 0.0000
-2.8299 BUY GRAPEFRUIT 0.0000
-2.8299 BUY GRAPES 0.0000
-2.8299 BUY GRAVY 0.0000
-2.8299 BUY GREENS 0.0000
-2.8299 BUY GREETING 0.0000
-2.8299 BUY GROUND 0.0000
-2.8299 BUY GUM 0.0000
-2.8299 BUY HAIR 0.0000
-2.8299 BUY HALF -0.1761
-2.8299 BUY HAM 0.0000
-2.8299 BUY HAND 0.0000
-2.8299 BUY HEAVY 0.0000
-2.8299 BUY HERBS 0.0000
-2.8299 BUY HONEY 0.0000
-2.5289 BUY HOT 0.0000
-2.8299 BUY ICE 0.0000
-2.8299 BUY ICECREAM 0.0000
-2.8299 BUY INSECT 0.0000
-2.8299 BUY INSTANT 0.0000
-2.8299 BUY JAM 0.0000
-2.8299 BUY JELLY 0.0000
-2.5289 BUY JUICE 0.0000
-2.8299 BUY KETCHUP 0.0000
-2.8299 BUY KITCHEN 0.0000
-2.8299 BUY KIWIS 0.0000
-2.8299 BUY LEMON 0.0000
-2.8299 BUY LEMONS 0.0000
-2.8299 BUY LETTUCE 0.0000
-2.8299 BUY LIGHT 0.0000
-2.8299 BUY LIME 0.0000
-2.8299 BUY LIMES 0.0000
-2.8299 BUY LIP 0.0000
-2.8299 BUY LOBSTER 0.0000
-2.8299 BUY LOTION 0.0000
-2.8299 BUY LUNCHMEAT 0.0000
-2.5289 BUY MAC 0.0000
-2.8299 BUY MAGAZINE 0.0000
-2.8299 BUY MARGARINE 0.0000
-2.8299 BUY MAYONNAISE 0.0000
-2.8299 BUY MEAT 0.0000
-2.8299 BUY MEDICAL 0.0000
-2.8299 BUY MEDICINE 0.0000
-2.8299 BUY MELON 0.0000
-2.8299 BUY MILK 0.0000
-2.8299 BUY MINT 0.0000
-2.8299 BUY MIX 0.0000
-2.8299 BUY MIXERS 0.0000
-2.8299 BUY MOISTURIZING 0.0000
-2.8299 BUY MOP 0.0000
-2.8299 BUY MOUTHWASH 0.0000
-2.8299 BUY MOZZARELLA 0.0000
-2.8299 BUY MUSHROOMS 0.0000
-2.8299 BUY MUSSELS 0.0000
-2.8299 BUY MUSTARD 0.0000
-2.8299 BUY NAPKINS 0.0000
-2.8299 BUY NECTARINES 0.0000
-2.8299 BUY NEWSPAPER 0.0000
-2.8299 BUY NON-STICK 0.0000
-2.8299 BUY NOTEPAD 0.0000
-2.8299 BUY NUTS 0.0000
-2.8299 BUY OATMEAL 0.0000
-2.8299 BUY OFFICE 0.0000
-2.8299 BUY OLIVE 0.0000
-2.8299 BUY OLIVES 0.0000
-2.8299 BUY ONIONS 0.0000
-2.8299 BUY ORANGES 0.0000
-2.8299 BUY OREGANO 0.0000
-2.8299 BUY OTHER 0.0000
-2.8299 BUY OYSTERS 0.0000
-2.8299 BUY PACKAGED 0.0000
-2.8299 BUY PAIN 0.0000
-2.8299 BUY PANCAKE 0.0000
-2.8299 BUY PAPER -0.2430
-2.8299 BUY PAPRIKA 0.0000
-2.8299 BUY PARMESAN 0.0000
-2.8299 BUY PARSLEY 0.0000
-2.5289 BUY PASTA 0.0000
-2.8299 BUY PASTRIES 0.0000
-2.8299 BUY PEACHES 0.0000
-2.8299 BUY PEANUT 0.0000
-2.8299 BUY PEARS 0.0000
-2.8299 BUY PENCILS 0.0000
-2.8299 BUY PENS 0.0000
-2.8299 BUY PEPPERS 0.0000
-2.8299 BUY PET 0.0000
-2.8299 BUY PETS 0.0000
-2.8299 BUY PICKLES 0.0000
-2.8299 BUY PIE 0.0000
-2.8299 BUY PITA 0.0000
-2.8299 BUY PIZZA 0.0000
-2.8299 BUY PIZZAS 0.0000
-2.8299 BUY PLASTIC 0.0000
-2.8299 BUY PLUMS 0.0000
-2.8299 BUY POPCORN 0.0000
-2.8299 BUY POPSICLES 0.0000
-2.8299 BUY PORK 0.0000
-2.8299 BUY POSTAGE 0.0000
-2.8299 BUY POTATO 0.0000
-2.8299 BUY POTATOES 0.0000
-2.8299 BUY PRESCRIPTION 0.0000
-2.8299 BUY PRESERVES 0.0000
-2.8299 BUY PRETZELS 0.0000
-2.8299 BUY PRINTER 0.0000
-2.8299 BUY PROPANE 0.0000
-2.8299 BUY PROTECTION 0.0000
-2.8299 BUY PROVOLONE 0.0000
-2.8299 BUY RADIONUCLIDES 0.0000
-2.8299 BUY RAZORS 0.0000
-2.8299 BUY READY 0.0000
-2.5289 BUY RED 0.0000
-2.8299 BUY REFRIGERATED 0.0000
-2.8299 BUY RELISH 0.0000
-2.8299 BUY RICE 0.0000
-2.8299 BUY RICOTTA 0.0000
-2.8299 BUY ROLLS 0.0000
-2.8299 BUY RUM 0.0000
-2.8299 BUY SAKE 0.0000
-2.5289 BUY SALAD 0.0000
-2.8299 BUY SALMON 0.0000
-2.8299 BUY SALSA 0.0000
-2.8299 BUY SALT 0.0000
-2.5289 BUY SANDWICH 0.0000
-2.8299 BUY SAUCE 0.0000
-2.8299 BUY SAUSAGE 0.0000
-2.8299 BUY SCRUBBERS 0.0000
-2.8299 BUY SEAFOOD 0.0000
-2.8299 BUY SEEDS 0.0000
-2.8299 BUY SHAMPOO 0.0000
-2.8299 BUY SHAVING 0.0000
-2.8299 BUY SHORTENING 0.0000
-2.8299 BUY SHRIMP 0.0000
-2.8299 BUY SLICED 0.0000
-2.8299 BUY SNACKS 0.0000
-2.5289 BUY SODA 0.0000
-2.8299 BUY SORBET 0.0000
-2.8299 BUY SOUP 0.0000
-2.8299 BUY SOUR 0.0000
-2.8299 BUY SOY 0.0000
-2.8299 BUY SPAGHETTI 0.0000
-2.8299 BUY SPICES 0.0000
-2.8299 BUY SPINACH 0.0000
-2.8299 BUY SPONGES 0.0000
-2.8299 BUY SPORTS 0.0000
-2.8299 BUY SPRAY 0.0000
-2.8299 BUY SQUASH 0.0000
-2.8299 BUY STEAK 0.0000
-2.5289 BUY SUGAR 0.0000
-2.8299 BUY SUNBLOCK 0.0000
-2.8299 BUY SUPPLEMENTS 0.0000
-2.8299 BUY SWISS 0.0000
-2.8299 BUY SYRUP 0.0000
-2.8299 BUY TACO 0.0000
-2.8299 BUY TAKE-OUT 0.0000
-2.8299 BUY TAPE 0.0000
-2.8299 BUY TEA 0.0000
-2.8299 BUY THEMED 0.0000
-2.8299 BUY TILAPIA 0.0000
-2.8299 BUY TINNED 0.0000
-2.8299 BUY TOFU 0.0000
-2.8299 BUY TOILET 0.0000
-2.5289 BUY TOMATOES 0.0000
-2.8299 BUY TONIC 0.0000
-2.8299 BUY TOOTHPASTE 0.0000
-2.8299 BUY TORTILLAS 0.0000
-2.8299 BUY TREATS 0.0000
-2.5289 BUY TUNA 0.0000
-2.5289 BUY TURKEY 0.0000
-2.8299 BUY VACUUM 0.0000
-2.8299 BUY VANILLA 0.0000
-2.8299 BUY VARIOUS 0.0000
-2.8299 BUY VEGETABLE 0.0000
-2.8299 BUY VEGETABLES 0.0000
-2.8299 BUY VEGGIE 0.0000
-2.8299 BUY VEGGIES 0.0000
-2.8299 BUY VINEGAR 0.0000
-2.8299 BUY VINYL 0.0000
-2.8299 BUY VITAMINS 0.0000
-2.8299 BUY VODKA 0.0000
-2.8299 BUY WAFFLE 0.0000
-2.8299 BUY WAX 0.0000
-2.8299 BUY WHIPPED 0.0000
-2.8299 BUY WHISKEY 0.0000
-2.8299 BUY WHITE 0.0000
-2.8299 BUY WINE 0.0000
-2.8299 BUY WIPES 0.0000
-2.8299 BUY WORCESTERSHIRE 0.0000
-2.8299 BUY YEAST 0.0000
-2.8299 BUY YOGURT 0.0000
-2.8299 BUY ZUCCHINI 0.0000
-0.4260 CAKE </s> -0.3010
-0.9031 CAKE ICING 0.0000
-0.3010 CANCEL </s> -0.3010
-0.3010 CANDY </s> -0.3010
-0.3010 CANNED FOODS 0.0000
-0.3010 CARCINOGENS </s> -0.3010
-0.3010 CARD </s> -0.3010
-0.3010 CARROTS </s> -0.3010
-0.6021 CAT FOOD 0.0000
-0.6021 CAT LITTER 0.0000
-0.3010 CATFISH </s> -0.3010
-0.3010 CAULIFLOWER </s> -0.3010
-0.3010 CDRS </s> -0.3010
-0.3010 CELERY </s> -0.3010
-0.3010 CEREAL </s> -0.3010
-0.3010 CHAMPAGNE </s> -0.3010
-0.3010 CHARCOAL </s> -0.3010
-0.3010 CHEDDAR </s> -0.3010
-0.3010 CHEESE </s> -0.3010
-0.3010 CHERRIES </s> -0.3010
-0.3010 CHICKEN </s> -0.3010
-0.6021 CHILI </s> -0.3010
-0.6021 CHILI NIGHT 0.0000
-0.3010 CHIP DIP 0.0000
-0.3010 CHIPS </s> -0.3010
-0.3010 CHLORIDE </s> -0.3010
-0.3010 CHOCOLATE CHIPS 0.0000
-0.3010 CIGARETTES </s> -0.3010
-0.3010 CILANTRO </s> -0.3010
-0.3010 CINNAMON </s> -0.3010
-0.3010 CLEANER </s> -0.3010
-0.3010 CLEANING PRODUCTS 0.0000
-0.3010 CLEANSER </s> -0.3010
-0.3010 CLUB SODA -0.1249
-0.3010 COCOA </s> -0.3010
-0.3010 COFFEE </s> -0.3010
-0.3010 CONCENTRATE </s> -0.3010
-0.3010 CONDIMENTS </s> -0.3010
-0.3010 CONDITIONER </s> -0.3010
-0.3010 CONDOMS </s> -0.3010
-0.6021 COOK BANANA 0.0000
-0.6021 COOK STRAWBERRY 0.0000
-0.3010 COOKIES </s> -0.3010
-0.3010 CORN CHIPS 0.0000
-0.3010 COSMETICS </s> -0.3010
-0.3010 COTTAGE CHEESE 0.0000
-0.3010 COTTON SWABS 0.0000
-0.3010 CRAB </s> -0.3010
-0.3010 CRACKERS </s> -0.3010
-0.3802 CREAM </s> -0.3010
-1.0792 CREAM CHEESE 0.0000
-0.3010 CROISSANTS </s> -0.3010
-0.3010 CRUMBS </s> -0.3010
-0.3010 CUBES </s> -0.3010
-0.3010 CUCUMBERS </s> -0.3010
-0.3010 DAIRY </s> -0.3010
-0.3010 DELI FOOD 0.0000
-0.3010 DEODORANT </s> -0.3010
-0.3010 DETERGENT </s> -0.3010
-0.3010 DIAPERS </s> -0.3010
-0.3010 DIP </s> -0.3010
-0.3010 DISH </s> -0.3010
-0.3010 DISHWASHER SOAP 0.0000
-0.3010 DOG FOOD 0.0000
-0.3010 DOGS </s> -0.3010
-0.3010 DONUTS </s> -0.3010
-0.3010 DRESSING </s> -0.3010
-0.3010 DRIED FRUIT -0.1249
-0.3010 DRINK </s> -0.3010
-0.3010 DVDRS </s> -0.3010
-0.3010 EGGS </s> -0.3010
-0.3010 ENGLISH MUFFINS 0.0000
-0.3010 ENVELOPES </s> -0.3010
-0.6021 ES </s> -0.3010
-0.6021 ES AM 0.0000
-0.3010 EXIT </s> -0.3010
-0.3010 EXTRACT </s> -0.3010
-0.6021 FACIAL CLEANSER 0.0000
-0.6021 FACIAL TISSUE 0.0000
-0.3010 FAKE EGGS 0.0000
-0.3010 FEMININE PRODUCTS 0.0000
-0.3010 FETA </s> -0.3010
-0.3010 FILTERS </s> -0.3010
-0.3010 FISH STICKS 0.0000
-0.3010 FLEA TREATMENT 0.0000
-0.3010 FLOSS </s> -0.3010
-0.3010 FLOUR </s> -0.3010
-0.3010 FLOWERS </s> -0.3010
-0.3010 FOIL </s> -0.3010
-0.3010 FOOD </s> -0.3010
-0.3010 FOODS </s> -0.3010
-0.3010 FORMULA </s> -0.3010
-0.3010 FREEZER BAGS 0.0000
-0.7782 FRESH BREAD -0.0669
-0.7782 FRESH FRUITS 0.0000
-0.7782 FRESH VEGETABLES 0.0000
-0.3010 FRESHENER </s> -0.3010
-0.3010 FRIES </s> -0.3010
-0.3010 FROZEN </s> -0.3010
-0.4771 FRUIT </s> -0.3010
-0.7782 FRUIT JUICE -0.0969
-0.3010 FRUITS </s> -0.3010
-0.3010 GARBAGE BAGS 0.0000
-0.3010 GARLIC </s> -0.3010
-0.3010 GEL </s> -0.3010
-0.3010 GIN </s> -0.3010
-0.3010 GINGER </s> -0.3010
-0.3010 GLASS CLEANER 0.0000
-0.3010 GLUE </s> -0.3010
-0.3010 GOAT CHEESE 0.0000
-0.3010 GOODS </s> -0.3010
-0.3010 GRANOLA BARS 0.0000
-0.3010 GRAPEFRUIT </s> -0.3010
-0.3010 GRAPES </s> -0.3010
-0.3010 GRAVY </s> -0.3010
-0.3010 GREENS </s> -0.3010
-0.3010 GREETING CARD 0.0000
-0.3010 GROCERIES </s> -0.3010
-0.3010 GROUND BEEF 0.0000
-0.3010 GUM </s> -0.3010
-0.3010 HAIR GEL 0.0000
-0.6021 HALF </s> -0.3010
-0.6021 HALF AND -0.1761
-0.3010 HAM </s> -0.3010
-0.3010 HAND SOAP 0.0000
-0.3010 HEAD </s> -0.3010
-0.3010 HEAVY CREAM -0.0669
-0.3010 HERBS </s> -0.3010
-0.3010 HONEY </s> -0.3010
-0.6021 HOT DOGS 0.0000
-0.6021 HOT SAUCE 0.0000
-0.3010 ICE CREAM -0.0669
-0.3010 ICECREAM </s> -0.3010
-0.3010 ICING </s> -0.3010
-0.3010 INSECT REPELLENT 0.0000
-0.3010 INSTANT POTATOES 0.0000
-0.3010 ITEMS </s> -0.3010
-0.3010 JAM </s> -0.3010
-0.3010 JELLY </s> -0.3010
-0.4260 JUICE </s> -0.3010
-0.9031 JUICE CONCENTRATE 0.0000
-0.3010 KETCHUP </s> -0.3010
-0.3010 KITCHEN </s> -0.3010
-0.3010 KIWIS </s> -0.3010
-0.3010 LEMON </s> -0.3010
-0.3010 LEMONS </s> -0.3010
-0.3010 LETTUCE </s> -0.3010
-0.3010 LIGHT BULBS 0.0000
-0.3010 LIME JUICE -0.0969
-0.3010 LIMES </s> -0.3010
-0.3010 LIP BALM 0.0000
-0.3010 LITTER </s> -0.3010
-0.3010 LOBSTER </s> -0.3010
-0.3010 LOTION </s> -0.3010
-0.3010 LUNCHMEAT </s> -0.3010
-0.6021 MAC AN 0.0000
-0.6021 MAC AND -0.1761
-0.3010 MAGAZINE </s> -0.3010
-0.3010 MARGARINE </s> -0.3010
-0.3010 MAYONNAISE </s> -0.3010
-0.3010 MEALS </s> -0.3010
-0.3010 MEAT </s> -0.3010
-0.3010 MEATS </s> -0.3010
-0.3010 MEDICAL </s> -0.3010
-0.3010 MEDICINE </s> -0.3010
-0.3010 MELON </s> -0.3010
-0.3010 MILK </s> -0.3010
-0.3010 MINT </s> -0.3010
-0.3010 MIX </s> -0.3010
-0.3010 MIXERS </s> -0.3010
-0.3010 MOISTURIZING LOTION 0.0000
-0.3010 MOP HEAD 0.0000
-0.3010 MOUTHWASH </s> -0.3010
-0.3010 MOZZARELLA </s> -0.3010
-0.3010 MUFFINS </s> -0.3010
-0.3010 MUSHROOMS </s> -0.3010
-0.3010 MUSSELS </s> -0.3010
-0.3010 MUSTARD </s> -0.3010
-0.3010 NAPKINS </s> -0.3010
-0.3010 NECTARINES </s> -0.3010
-0.3010 NETFLIX </s> -0.3010
-0.3010 NEWSPAPER </s> -0.3010
-0.3010 NIGHT </s> -0.3010
-0.3010 NO </s> -0.3010
-0.3010 NON-STICK SPRAY 0.0000
-0.3010 NOTEPAD </s> -0.3010
-0.3010 NUTS </s> -0.3010
-0.3010 OATMEAL </s> -0.3010
-0.3010 OFFICE SUPPLIES 0.0000
-0.3010 OIL </s> -0.3010
-0.3010 OLIVE OIL 0.0000
-0.3010 OLIVES </s> -0.3010
-0.3010 ONIONS </s> -0.3010
-0.3010 ORANGES </s> -0.3010
-0.3010 OREGANO </s> -0.3010
-0.3010 OTHER STUFF 0.0000
-0.3010 OYSTERS </s> -0.3010
-0.3010 PACKAGED MEALS 0.0000
-0.3010 PAIN RELIEVER 0.0000
-0.3010 PANCAKE </s> -0.3010
-0.4260 PAPER </s> -0.3010
-0.9031 PAPER TOWELS 0.0000
-0.3010 PAPRIKA </s> -0.3010
-0.3010 PARMESAN </s> -0.3010
-0.3010 PARSLEY </s> -0.3010
-0.6021 PASTA </s> -0.3010
-0.6021 PASTA SAUCE 0.0000
-0.3010 PASTRIES </s> -0.3010
-0.3010 PEACHES </s> -0.3010
-0.3010 PEANUT BUTTER 0.0000
-0.3010 PEARS </s> -0.3010
-0.3010 PENCILS </s> -0.3010
-0.3010 PENS </s> -0.3010
-0.3010 PEPPER </s> -0.3010
-0.3010 PEPPERS </s> -0.3010
-0.3010 PET SHAMPOO 0.0000
-0.3010 PETS </s> -0.3010
-0.3010 PICK-UP </s> -0.3010
-0.3010 PICKLES </s> -0.3010
-0.3010 PIE </s> -0.3010
-0.3010 PITA BREAD -0.0669
-0.3010 PIZZA NIGHT 0.0000
-0.3010 PIZZAS </s> -0.3010
-0.3010 PLASTIC WRAP 0.0000
-0.3010 PLUMS </s> -0.3010
-0.3010 POP </s> -0.3010
-0.3010 POPCORN </s> -0.3010
-0.3010 POPSICLES </s> -0.3010
-0.3010 PORK </s> -0.3010
-0.3010 POSTAGE STAMPS 0.0000
-0.3010 POTATO </s> -0.3010
-0.3010 POTATOES </s> -0.3010
-0.3010 POWDER </s> -0.3010
-0.3010 PRESCRIPTION PICK-UP 0.0000
-0.3010 PRESERVES </s> -0.3010
-0.3010 PRETZELS </s> -0.3010
-0.3010 PRINTER PAPER -0.0969
-0.3010 PRODUCTS </s> -0.3010
-0.3010 PROPANE </s> -0.3010
-0.3010 PROTECTION </s> -0.3010
-0.3010 PROVOLONE </s> -0.3010
-0.3010 RADIONUCLIDES </s> -0.3010
-0.3010 RAZORS </s> -0.3010
-0.3010 READY BAKE 0.0000
-0.6021 RED PEPPER 0.0000
-0.6021 RED WINE 0.0000
-0.3010 REFRIGERATED ITEMS 0.0000
-0.3010 RELIEVER </s> -0.3010
-0.3010 RELISH </s> -0.3010
-0.3010 REMOVE </s> -0.3010
-0.3010 REPELLENT </s> -0.3010
-0.3010 RICE </s> -0.3010
-0.3010 RICOTTA </s> -0.3010
-0.3010 ROLLS </s> -0.3010
-0.3010 RUM </s> -0.3010
-0.3010 SAKE </s> -0.3010
-0.6021 SALAD </s> -0.3010
-0.6021 SALAD DRESSING 0.0000
-0.3010 SALMON </s> -0.3010
-0.3010 SALSA </s> -0.3010
-0.3010 SALT </s> -0.3010
-0.6021 SANDWICH </s> -0.3010
-0.6021 SANDWICH SLICES 0.0000
-0.3010 SAUCE </s> -0.3010
-0.3010 SAUSAGE </s> -0.3010
-0.3010 SCRUBBERS </s> -0.3010
-0.3010 SEAFOOD </s> -0.3010
-0.3010 SEEDS </s> -0.3010
-0.3010 SEND ES -0.1761
-0.3010 SHAMPOO </s> -0.3010
-0.3010 SHAVING CREAM -0.0669
-0.3010 SHORTENING </s> -0.3010
-0.3010 SHRIMP </s> -0.3010
-0.3010 SLICED BREAD -0.0669
-0.3010 SLICES </s> -0.3010
-0.3010 SNACKS </s> -0.3010
-0.3010 SOAP </s> -0.3010
-0.4771 SODA </s> -0.3010
-0.7782 SODA POP 0.0000
-0.3010 SORBET </s> -0.3010
-0.3010 SOUP </s> -0.3010
-0.3010 SOUR CREAM -0.0669
-0.3010 SOY SAUCE 0.0000
-0.3010 SPAGHETTI NIGHT 0.0000
-0.3010 SPICES </s> -0.3010
-0.3010 SPINACH </s> -0.3010
-0.3010 SPONGES </s> -0.3010
-0.3010 SPORTS DRINK 0.0000
-0.3010 SPRAY </s> -0.3010
-0.3010 SQUASH </s> -0.3010
-0.3010 STAMPS </s> -0.3010
-0.3010 STEAK SAUCE 0.0000
-0.3010 STICKS </s> -0.3010
-0.3010 STRAWBERRY CAKE -0.0969
-0.3010 STUFF </s> -0.3010
-0.3010 SUBSTITUTE </s> -0.3010
-0.6021 SUGAR </s> -0.3010
-0.6021 SUGAR SUBSTITUTE 0.0000
-0.3010 SUNBLOCK </s> -0.3010
-0.3010 SUPPLEMENTS </s> -0.3010
-0.3010 SUPPLIES </s> -0.3010
-0.3010 SWABS </s> -0.3010
-0.3010 SWISS </s> -0.3010
-0.3010 SYRUP </s> -0.3010
-0.3010 TACO NIGHT 0.0000
-0.3010 TAKE-OUT DELI 0.0000
-0.3010 TAPE </s> -0.3010
-0.3010 TEA </s> -0.3010
-0.3010 THEMED MEALS 0.0000
-0.3010 TILAPIA </s> -0.3010
-0.3010 TINNED MEATS 0.0000
-0.3010 TISSUE </s> -0.3010
-0.3010 TOFU </s> -0.3010
-0.3010 TOILET PAPER -0.0969
-0.3010 TOMATOES </s> -0.3010
-0.3010 TONIC </s> -0.3010
-0.3010 TOOTHPASTE </s> -0.3010
-0.3010 TORTILLAS </s> -0.3010
-0.3010 TOWELS </s> -0.3010
-0.3010 TRAIN </s> -0.3010
-0.3010 TREATMENT </s> -0.3010
-0.3010 TREATS </s> -0.3010
-0.3010 TUNA </s> -0.3010
-0.3010 TURKEY </s> -0.3010
-0.3010 UNDO </s> -0.3010
-0.3010 VACUUM BAGS 0.0000
-0.3010 VANILLA EXTRACT 0.0000
-0.3010 VARIOUS GROCERIES 0.0000
-0.3010 VEGETABLE OIL 0.0000
-0.3010 VEGETABLES </s> -0.3010
-0.3010 VEGGIE BURGERS 0.0000
-0.3010 VEGGIES </s> -0.3010
-0.3010 VINEGAR </s> -0.3010
-0.3010 VINYL CHLORIDE 0.0000
-0.3010 VITAMINS </s> -0.3010
-0.3010 VODKA </s> -0.3010
-0.3010 WAFFLE MIX 0.0000
-0.3010 WASH </s> -0.3010
-0.3010 WAX PAPER -0.0969
-0.3010 WEATHER </s> -0.3010
-0.3010 WHIPPED CREAM -0.0669
-0.3010 WHISKEY </s> -0.3010
-0.3010 WHITE WINE 0.0000
-0.3010 WINE </s> -0.3010
-0.3010 WIPES </s> -0.3010
-0.3010 WORCESTERSHIRE SAUCE 0.0000
-0.3010 WRAP </s> -0.3010
-0.3010 YEAST </s> -0.3010
-0.3010 YOGURT </s> -0.3010
-0.3010 ZUCCHINI </s> -0.3010

\3-grams:
-2.8299 <s> BUY AIR
-2.8299 <s> BUY ALLERGY
-2.8299 <s> BUY ALUMINUM
-2.8299 <s> BUY ANTACID
-2.8299 <s> BUY ANTIBIOTIC
-2.8299 <s> BUY ANTIDIARRHEAL
-2.8299 <s> BUY ANTIPERSPIRANT
-2.8299 <s> BUY APPLES
-2.8299 <s> BUY APPLESAUCE
-2.8299 <s> BUY ARSENIC
-2.8299 <s> BUY ASBESTOS
-2.8299 <s> BUY ASPARAGUS
-2.8299 <s> BUY ASPIRIN
-2.8299 <s> BUY AUTOMOTIVE
-2.8299 <s> BUY AVOCADOS
-2.3528 <s> BUY BABY
-2.8299 <s> BUY BACON
-2.5289 <s> BUY BAGELS
-2.5289 <s> BUY BAKED
-2.5289 <s> BUY BAKING
-2.8299 <s> BUY BALLS
-2.8299 <s> BUY BANANAS
-2.8299 <s> BUY BAND
-2.8299 <s> BUY BASIL
-2.8299 <s> BUY BATH
-2.8299 <s> BUY BATHROOM
-2.8299 <s> BUY BATTERIES
-2.8299 <s> BUY BEEF
-2.8299 <s> BUY BEER
-2.8299 <s> BUY BERRIES
-2.8299 <s> BUY BEVERAGES
-2.8299 <s> BUY BLACK
-2.8299 <s> BUY BLEACH
-2.8299 <s> BUY BLEU
-2.8299 <s> BUY BOUILLON
-2.5289 <s> BUY BREAD
-2.8299 <s> BUY BREAKFASTS
-2.8299 <s> BUY BROCCOLI
-2.8299 <s> BUY BROTH
-2.8299 <s> BUY BROWNIE
-2.8299 <s> BUY BUNS
-2.8299 <s> BUY BURGER
-2.8299 <s> BUY BURRITOS
-2.8299 <s> BUY BUTTER
-2.3528 <s> BUY CAKE
-2.8299 <s> BUY CANDY
-2.8299 <s> BUY CANNED
-2.8299 <s> BUY CARCINOGENS
-2.8299 <s> BUY CARROTS
-2.5289 <s> BUY CAT
-2.8299 <s> BUY CATFISH
-2.8299 <s> BUY CAULIFLOWER
-2.8299 <s> BUY CDRS
-2.8299 <s> BUY CELERY
-2.8299 <s> BUY CEREAL
-2.8299 <s> BUY CHAMPAGNE
-2.8299 <s> BUY CHARCOAL
-2.8299 <s> BUY CHEDDAR
-2.8299 <s> BUY CHEESE
-2.8299 <s> BUY CHERRIES
-2.5289 <s> BUY CHICKEN
-2.5289 <s> BUY CHILI
-2.8299 <s> BUY CHIP
-2.8299 <s> BUY CHOCOLATE
-2.8299 <s> BUY CIGARETTES
-2.8299 <s> BUY CILANTRO
-2.8299 <s> BUY CINNAMON
-2.8299 <s> BUY CLEANING
-2.8299 <s> BUY CLUB
-2.8299 <s> BUY COCOA
-2.8299 <s> BUY COFFEE
-2.8299 <s> BUY CONDIMENTS
-2.8299 <s> BUY CONDITIONER
-2.8299 <s> BUY CONDOMS
-2.5289 <s> BUY COOKIES
-2.8299 <s> BUY CORN
-2.8299 <s> BUY COSMETICS
-2.8299 <s> BUY COTTAGE
-2.8299 <s> BUY COTTON
-2.8299 <s> BUY CRAB
-2.8299 <s> BUY CRACKERS
-2.8299 <s> BUY CREAM
-2.8299 <s> BUY CROISSANTS
-2.8299 <s> BUY CUCUMBERS
-2.8299 <s> BUY DAIRY
-2.8299 <s> BUY DEODORANT
-2.8299 <s> BUY DETERGENT
-2.8299 <s> BUY DIAPERS
-2.8299 <s> BUY DISH
-2.8299 <s> BUY DISHWASHER
-2.8299 <s> BUY DOG
-2.8299 <s> BUY DONUTS
-2.8299 <s> BUY DRIED
-2.8299 <s> BUY DVDRS
-2.8299 <s> BUY EGGS
-2.8299 <s> BUY ENGLISH
-2.8299 <s> BUY ENVELOPES
-2.5289 <s> BUY FACIAL
-2.8299 <s> BUY FAKE
-2.8299 <s> BUY FEMININE
-2.8299 <s> BUY FETA
-2.8299 <s> BUY FILTERS
-2.8299 <s> BUY FISH
-2.8299 <s> BUY FLEA
-2.8299 <s> BUY FLOSS
-2.8299 <s> BUY FLOUR
-2.8299 <s> BUY FLOWERS
-2.8299 <s> BUY FORMULA
-2.8299 <s> BUY FREEZER
-2.3528 <s> BUY FRESH
-2.8299 <s> BUY FRIES
-2.8299 <s> BUY FROZEN
-2.5289 <s> BUY FRUIT
-2.8299 <s> BUY GARBAGE
-2.8299 <s> BUY GARLIC
-2.8299 <s> BUY GIN
-2.8299 <s> BUY GINGER
-2.8299 <s> BUY GLASS
-2.8299 <s> BUY GLUE
-2.8299 <s> BUY GOAT
-2.8299 <s> BUY GRANOLA
-2.8299 <s> BUY GRAPEFRUIT
-2.8299 <s> BUY GRAPES
-2.8299 <s> BUY GRAVY
-2.8299 <s> BUY GREENS
-2.8299 <s> BUY GREETING
-2.8299 <s> BUY GROUND
-2.8299 <s> BUY GUM
-2.8299 <s> BUY HAIR
-2.8299 <s> BUY HALF
-2.8299 <s> BUY HAM
-2.8299 <s> BUY HAND
-2.8299 <s> BUY HEAVY
-2.8299 <s> BUY HERBS
-2.8299 <s> BUY HONEY
-2.5289 <s> BUY HOT
-2.8299 <s> BUY ICE
-2.8299 <s> BUY ICECREAM
-2.8299 <s> BUY INSECT
-2.8299 <s> BUY INSTANT
-2.8299 <s> BUY JAM
-2.8299 <s> BUY JELLY
-2.5289 <s> BUY JUICE
-2.8299 <s> BUY KETCHUP
-2.8299 <s> BUY KITCHEN
-2.8299 <s> BUY KIWIS
-2.8299 <s> BUY LEMON
-2.8299 <s> BUY LEMONS
-2.8299 <s> BUY LETTUCE
-2.8299 <s> BUY LIGHT
-2.8299 <s> BUY LIME
-2.8299 <s> BUY LIMES
-2.8299 <s> BUY LIP
-2.8299 <s> BUY LOBSTER
-2.8299 <s> BUY LOTION
-2.8299 <s> BUY LUNCHMEAT
-2.5289 <s> BUY MAC
-2.8299 <s> BUY MAGAZINE
-2.8299 <s> BUY MARGARINE
-2.8299 <s> BUY MAYONNAISE
-2.8299 <s> BUY MEAT
-2.8299 <s> BUY MEDICAL
-2.8299 <s> BUY MEDICINE
-2.8299 <s> BUY MELON
-2.8299 <s> BUY MILK
-2.8299 <s> BUY MINT
-2.8299 <s> BUY MIX
-2.8299 <s> BUY MIXERS
-2.8299 <s> BUY MOISTURIZING
-2.8299 <s> BUY MOP
-2.8299 <s> BUY MOUTHWASH
-2.8299 <s> BUY MOZZARELLA
-2.8299 <s> BUY MUSHROOMS
-2.8299 <s> BUY MUSSELS
-2.8299 <s> BUY MUSTARD
-2.8299 <s> BUY NAPKINS
-2.8299 <s> BUY NECTARINES
-2.8299 <s> BUY NEWSPAPER
-2.8299 <s> BUY NON-STICK
-2.8299 <s> BUY NOTEPAD
-2.8299 <s> BUY NUTS
-2.8299 <s> BUY OATMEAL
-2.8299 <s> BUY OFFICE
-2.8299 <s> BUY OLIVE
-2.8299 <s> BUY OLIVES
-2.8299 <s> BUY ONIONS
-2.8299 <s> BUY ORANGES
-2.8299 <s> BUY OREGANO
-2.8299 <s> BUY OTHER
-2.8299 <s> BUY OYSTERS
-2.8299 <s> BUY PACKAGED
-2.8299 <s> BUY PAIN
-2.8299 <s> BUY PANCAKE
-2.8299 <s> BUY PAPER
-2.8299 <s> BUY PAPRIKA
-2.8299 <s> BUY PARMESAN
-2.8299 <s> BUY PARSLEY
-2.5289 <s> BUY PASTA
-2.8299 <s> BUY PASTRIES
-2.8299 <s> BUY PEACHES
-2.8299 <s> BUY PEANUT
-2.8299 <s> BUY PEARS
-2.8299 <s> BUY PENCILS
-2.8299 <s> BUY PENS
-2.8299 <s> BUY PEPPERS
-2.8299 <s> BUY PET
-2.8299 <s> BUY PETS
-2.8299 <s> BUY PICKLES
-2.8299 <s> BUY PIE
-2.8299 <s> BUY PITA
-2.8299 <s> BUY PIZZA
-2.8299 <s> BUY PIZZAS
-2.8299 <s> BUY PLASTIC
-2.8299 <s> BUY PLUMS
-2.8299 <s> BUY POPCORN
-2.8299 <s> BUY POPSICLES
-2.8299 <s> BUY PORK
-2.8299 <s> BUY POSTAGE
-2.8299 <s> BUY POTATO
-2.8299 <s> BUY POTATOES
-2.8299 <s> BUY PRESCRIPTION
-2.8299 <s> BUY PRESERVES
-2.8299 <s> BUY PRETZELS
-2.8299 <s> BUY PRINTER
-2.8299 <s> BUY PROPANE
-2.8299 <s> BUY PROTECTION
-2.8299 <s> BUY PROVOLONE
-2.8299 <s> BUY RADIONUCLIDES
-2.8299 <s> BUY RAZORS
-2.8299 <s> BUY READY
-2.5289 <s> BUY RED
-2.8299 <s> BUY REFRIGERATED
-2.8299 <s> BUY RELISH
-2.8299 <s> BUY RICE
-2.8299 <s> BUY RICOTTA
-2.8299 <s> BUY ROLLS
-2.8299 <s> BUY RUM
-2.8299 <s> BUY SAKE
-2.5289 <s> BUY SALAD
-2.8299 <s> BUY SALMON
-2.8299 <s> BUY SALSA
-2.8299 <s> BUY SALT
-2.5289 <s> BUY SANDWICH
-2.8299 <s> BUY SAUCE
-2.8299 <s> BUY SAUSAGE
-2.8299 <s> BUY SCRUBBERS
-2.8299 <s> BUY SEAFOOD
-2.8299 <s> BUY SEEDS
-2.8299 <s> BUY SHAMPOO
-2.8299 <s> BUY SHAVING
-2.8299 <s> BUY SHORTENING
-2.8299 <s> BUY SHRIMP
-2.8299 <s> BUY SLICED
-2.8299 <s> BUY SNACKS
-2.5289 <s> BUY SODA
-2.8299 <s> BUY SORBET
-2.8299 <s> BUY SOUP
-2.8299 <s> BUY SOUR
-2.8299 <s> BUY SOY
-2.8299 <s> BUY SPAGHETTI
-2.8299 <s> BUY SPICES
-2.8299 <s> BUY SPINACH
-2.8299 <s> BUY SPONGES
-2.8299 <s> BUY SPORTS
-2.8299 <s> BUY SPRAY
-2.8299 <s> BUY SQUASH
-2.8299 <s> BUY STEAK
-2.5289 <s> BUY SUGAR
-2.8299 <s> BUY SUNBLOCK
-2.8299 <s> BUY SUPPLEMENTS
-2.8299 <s> BUY SWISS
-2.8299 <s> BUY SYRUP
-2.8299 <s> BUY TACO
-2.8299 <s> BUY TAKE-OUT
-2.8299 <s> BUY TAPE
-2.8299 <s> BUY TEA
-2.8299 <s> BUY THEMED
-2.8299 <s> BUY TILAPIA
-2.8299 <s> BUY TINNED
-2.8299 <s> BUY TOFU
-2.8299 <s> BUY TOILET
-2.5289 <s> BUY TOMATOES
-2.8299 <s> BUY TONIC
-2.8299 <s> BUY TOOTHPASTE
-2.8299 <s> BUY TORTILLAS
-2.8299 <s> BUY TREATS
-2.5289 <s> BUY TUNA
-2.5289 <s> BUY TURKEY
-2.8299 <s> BUY VACUUM
-2.8299 <s> BUY VANILLA
-2.8299 <s> BUY VARIOUS
-2.8299 <s> BUY VEGETABLE
-2.8299 <s> BUY VEGETABLES
-2.8299 <s> BUY VEGGIE
-2.8299 <s> BUY VEGGIES
-2.8299 <s> BUY VINEGAR
-2.8299 <s> BUY VINYL
-2.8299 <s> BUY VITAMINS
-2.8299 <s> BUY VODKA
-2.8299 <s> BUY WAFFLE
-2.8299 <s> BUY WAX
-2.8299 <s> BUY WHIPPED
-2.8299 <s> BUY WHISKEY
-2.8299 <s> BUY WHITE
-2.8299 <s> BUY WINE
-2.8299 <s> BUY WIPES
-2.8299 <s> BUY WORCESTERSHIRE
-2.8299 <s> BUY YEAST
-2.8299 <s> BUY YOGURT
-2.8299 <s> BUY ZUCCHINI
-0.3010 <s> CANCEL </s>
-0.6021 <s> COOK BANANA
-0.6021 <s> COOK STRAWBERRY
-0.3010 <s> EXIT </s>
-0.3010 <s> NETFLIX </s>
-0.3010 <s> NO </s>
-0.3010 <s> REMOVE </s>
-0.3010 <s> SEND ES
-0.3010 <s> TRAIN </s>
-0.3010 <s> UNDO </s>
-0.3010 <s> WEATHER </s>
-0.3010 AIR FRESHENER </s>
-0.3010 ALUMINUM FOIL </s>
-0.3010 AM ES </s>
-0.3010 AN CHEESE </s>
-0.3010 AND CHEESE </s>
-0.3010 AND HALF </s>
-0.3010 BABY FOOD </s>
-0.3010 BABY STUFF </s>
-0.3010 BABY WASH </s>
-0.3010 BAKE BREADS </s>
-0.3010 BAKED BEANS </s>
-0.3010 BAKED GOODS </s>
-0.3010 BAKING POWDER </s>
-0.3010 BANANA BREAD </s>
-0.3010 BAND AIDS </s>
-0.3010 BATH SOAP </s>
-0.3010 BATHROOM CLEANER </s>
-0.3010 BLACK PEPPER </s>
-0.3010 BLEU CHEESE </s>
-0.3010 BOUILLON CUBES </s>
-0.3010 BREAD CRUMBS </s>
-0.3010 BROWNIE MIX </s>
-0.3010 BURGER NIGHT </s>
-0.3010 BUY AIR FRESHENER
-0.3010 BUY ALLERGY </s>
-0.3010 BUY ALUMINUM FOIL
-0.3010 BUY ANTACID </s>
-0.3010 BUY ANTIBIOTIC </s>
-0.3010 BUY ANTIDIARRHEAL </s>
-0.3010 BUY ANTIPERSPIRANT </s>
-0.3010 BUY APPLES </s>
-0.3010 BUY APPLESAUCE </s>
-0.3010 BUY ARSENIC </s>
-0.3010 BUY ASBESTOS </s>
-0.3010 BUY ASPARAGUS </s>
-0.3010 BUY ASPIRIN </s>
-0.3010 BUY AUTOMOTIVE </s>
-0.3010 BUY AVOCADOS </s>
-0.7782 BUY BABY FOOD
-0.7782 BUY BABY STUFF
-0.7782 BUY BABY WASH
-0.3010 BUY BACON </s>
-0.3010 BUY BAGELS </s>
-0.6021 BUY BAKED BEANS
-0.6021 BUY BAKED GOODS
-0.6021 BUY BAKING </s>
-0.6021 BUY BAKING POWDER
-0.3010 BUY BALLS </s>
-0.3010 BUY BANANAS </s>
-0.3010 BUY BAND AIDS
-0.3010 BUY BASIL </s>
-0.3010 BUY BATH SOAP
-0.3010 BUY BATHROOM CLEANER
-0.3010 BUY BATTERIES </s>
-0.3010 BUY BEEF </s>
-0.3010 BUY BEER </s>
-0.3010 BUY BERRIES </s>
-0.3010 BUY BEVERAGES </s>
-0.3010 BUY BLACK PEPPER
-0.3010 BUY BLEACH </s>
-0.3010 BUY BLEU CHEESE
-0.3010 BUY BOUILLON CUBES
-0.6021 BUY BREAD </s>
-0.6021 BUY BREAD CRUMBS
-0.3010 BUY BREAKFASTS </s>
-0.3010 BUY BROCCOLI </s>
-0.3010 BUY BROTH </s>
-0.3010 BUY BROWNIE MIX
-0.3010 BUY BUNS </s>
-0.3010 BUY BURGER NIGHT
-0.3010 BUY BURRITOS </s>
-0.3010 BUY BUTTER </s>
-0.4771 BUY CAKE </s>
-0.7782 BUY CAKE ICING
-0.3010 BUY CANDY </s>
-0.3010 BUY CANNED FOODS
-0.3010 BUY CARCINOGENS </s>
-0.3010 BUY CARROTS </s>
-0.6021 BUY CAT FOOD
-0.6021 BUY CAT LITTER
-0.3010 BUY CATFISH </s>
-0.3010 BUY CAULIFLOWER </s>
-0.3010 BUY CDRS </s>
-0.3010 BUY CELERY </s>
-0.3010 BUY CEREAL </s>
-0.3010 BUY CHAMPAGNE </s>
-0.3010 BUY CHARCOAL </s>
-0.3010 BUY CHEDDAR </s>
-0.3010 BUY CHEESE </s>
-0.3010 BUY CHERRIES </s>
-0.3010 BUY CHICKEN </s>
-0.6021 BUY CHILI </s>
-0.6021 BUY CHILI NIGHT
-0.3010 BUY CHIP DIP
-0.3010 BUY CHOCOLATE CHIPS
-0.3010 BUY CIGARETTES </s>
-0.3010 BUY CILANTRO </s>
-0.3010 BUY CINNAMON </s>
-0.3010 BUY CLEANING PRODUCTS
-0.3010 BUY CLUB SODA
-0.3010 BUY COCOA </s>
-0.3010 BUY COFFEE </s>
-0.3010 BUY CONDIMENTS </s>
-0.3010 BUY CONDITIONER </s>
-0.3010 BUY CONDOMS </s>
-0.3010 BUY COOKIES </s>
-0.3010 BUY CORN CHIPS
-0.3010 BUY COSMETICS </s>
-0.3010 BUY COTTAGE CHEESE
-0.3010 BUY COTTON SWABS
-0.3010 BUY CRAB </s>
-0.3010 BUY CRACKERS </s>
-0.3010 BUY CREAM CHEESE
-0.3010 BUY CROISSANTS </s>
-0.3010 BUY CUCUMBERS </s>
-0.3010 BUY DAIRY </s>
-0.3010 BUY DEODORANT </s>
-0.3010 BUY DETERGENT </s>
-0.3010 BUY DIAPERS </s>
-0.3010 BUY DISH </s>
-0.3010 BUY DISHWASHER SOAP
-0.3010 BUY DOG FOOD
-0.3010 BUY DONUTS </s>
-0.3010 BUY DRIED FRUIT
-0.3010 BUY DVDRS </s>
-0.3010 BUY EGGS </s>
-0.3010 BUY ENGLISH MUFFINS
-0.3010 BUY ENVELOPES </s>
-0.6021 BUY FACIAL CLEANSER
-0.6021 BUY FACIAL TISSUE
-0.3010 BUY FAKE EGGS
-0.3010 BUY FEMININE PRODUCTS
-0.3010 BUY FETA </s>
-0.3010 BUY FILTERS </s>
-0.3010 BUY FISH STICKS
-0.3010 BUY FLEA TREATMENT
-0.3010 BUY FLOSS </s>
-0.3010 BUY FLOUR </s>
-0.3010 BUY FLOWERS </s>
-0.3010 BUY FORMULA </s>
-0.3010 BUY FREEZER BAGS
-0.7782 BUY FRESH BREAD
-0.7782 BUY FRESH FRUITS
-0.7782 BUY FRESH VEGETABLES
-0.3010 BUY FRIES </s>
-0.3010 BUY FROZEN </s>
-0.6021 BUY FRUIT </s>
-0.6021 BUY FRUIT JUICE
-0.3010 BUY GARBAGE BAGS
-0.3010 BUY GARLIC </s>
-0.3010 BUY GIN </s>
-0.3010 BUY GINGER </s>
-0.3010 BUY GLASS CLEANER
-0.3010 BUY GLUE </s>
-0.3010 BUY GOAT CHEESE
-0.3010 BUY GRANOLA BARS
-0.3010 BUY GRAPEFRUIT </s>
-0.3010 BUY GRAPES </s>
-0.3010 BUY GRAVY </s>
-0.3010 BUY GREENS </s>
-0.3010 BUY GREETING CARD
-0.3010 BUY GROUND BEEF
-0.3010 BUY GUM </s>
-0.3010 BUY HAIR GEL
-0.3010 BUY HALF AND
-0.3010 BUY HAM </s>
-0.3010 BUY HAND SOAP
-0.3010 BUY HEAVY CREAM
-0.3010 BUY HERBS </s>
-0.3010 BUY HONEY </s>
-0.6021 BUY HOT DOGS
-0.6021 BUY HOT SAUCE
-0.3010 BUY ICE CREAM
-0.3010 BUY ICECREAM </s>
-0.3010 BUY INSECT REPELLENT
-0.3010 BUY INSTANT POTATOES
-0.3010 BUY JAM </s>
-0.3010 BUY JELLY </s>
-0.6021 BUY JUICE </s>
-0.6021 BUY JUICE CONCENTRATE
-0.3010 BUY KETCHUP </s>
-0.3010 BUY KITCHEN </s>
-0.3010 BUY KIWIS </s>
-0.3010 BUY LEMON </s>
-0.3010 BUY LEMONS </s>
-0.3010 BUY LETTUCE </s>
-0.3010 BUY LIGHT BULBS
-0.3010 BUY LIME JUICE
-0.3010 BUY LIMES </s>
-0.3010 BUY LIP BALM
-0.3010 BUY LOBSTER </s>
-0.3010 BUY LOTION </s>
-0.3010 BUY LUNCHMEAT </s>
-0.6021 BUY MAC AN
-0.6021 BUY MAC AND
-0.3010 BUY MAGAZINE </s>
-0.3010 BUY MARGARINE </s>
-0.3010 BUY MAYONNAISE </s>
-0.3010 BUY MEAT </s>
-0.3010 BUY MEDICAL </s>
-0.3010 BUY MEDICINE </s>
-0.3010 BUY MELON </s>
-0.3010 BUY MILK </s>
-0.3010 BUY MINT </s>
-0.3010 BUY MIX </s>
-0.3010 BUY MIXERS </s>
-0.3010 BUY MOISTURIZING LOTION
-0.3010 BUY MOP HEAD
-0.3010 BUY MOUTHWASH </s>
-0.3010 BUY MOZZARELLA </s>
-0.3010 BUY MUSHROOMS </s>
-0.3010 BUY MUSSELS </s>
-0.3010 BUY MUSTARD </s>
-0.3010 BUY NAPKINS </s>
-0.3010 BUY NECTARINES </s>
-0.3010 BUY NEWSPAPER </s>
-0.3010 BUY NON-STICK SPRAY
-0.3010 BUY NOTEPAD </s>
-0.3010 BUY NUTS </s>
-0.3010 BUY OATMEAL </s>
-0.3010 BUY OFFICE SUPPLIES
-0.3010 BUY OLIVE OIL
-0.3010 BUY OLIVES </s>
-0.3010 BUY ONIONS </s>
-0.3010 BUY ORANGES </s>
-0.3010 BUY OREGANO </s>
-0.3010 BUY OTHER STUFF
-0.3010 BUY OYSTERS </s>
-0.3010 BUY PACKAGED MEALS
-0.3010 BUY PAIN RELIEVER
-0.3010 BUY PANCAKE </s>
-0.3010 BUY PAPER TOWELS
-0.3010 BUY PAPRIKA </s>
-0.3010 BUY PARMESAN </s>
-0.3010 BUY PARSLEY </s>
-0.6021 BUY PASTA </s>
-0.6021 BUY PASTA SAUCE
-0.3010 BUY PASTRIES </s>
-0.3010 BUY PEACHES </s>
-0.3010 BUY PEANUT BUTTER
-0.3010 BUY PEARS </s>
-0.3010 BUY PENCILS </s>
-0.3010 BUY PENS </s>
-0.3010 BUY PEPPERS </s>
-0.3010 BUY PET SHAMPOO
-0.3010 BUY PETS </s>
-0.3010 BUY PICKLES </s>
-0.3010 BUY PIE </s>
-0.3010 BUY PITA BREAD
-0.3010 BUY PIZZA NIGHT
-0.3010 BUY PIZZAS </s>
-0.3010 BUY PLASTIC WRAP
-0.3010 BUY PLUMS </s>
-0.3010 BUY POPCORN </s>
-0.3010 BUY POPSICLES </s>
-0.3010 BUY PORK </s>
-0.3010 BUY POSTAGE STAMPS
-0.3010 BUY POTATO </s>
-0.3010 BUY POTATOES </s>
-0.3010 BUY PRESCRIPTION PICK-UP
-0.3010 BUY PRESERVES </s>
-0.3010 BUY PRETZELS </s>
-0.3010 BUY PRINTER PAPER
-0.3010 BUY PROPANE </s>
-0.3010 BUY PROTECTION </s>
-0.3010 BUY PROVOLONE </s>
-0.3010 BUY RADIONUCLIDES </s>
-0.3010 BUY RAZORS </s>
-0.3010 BUY READY BAKE
-0.6021 BUY RED PEPPER
-0.6021 BUY RED WINE
-0.3010 BUY REFRIGERATED ITEMS
-0.3010 BUY RELISH </s>
-0.3010 BUY RICE </s>
-0.3010 BUY RICOTTA </s>
-0.3010 BUY ROLLS </s>
-0.3010 BUY RUM </s>
-0.3010 BUY SAKE </s>
-0.6021 BUY SALAD </s>
-0.6021 BUY SALAD DRESSING
-0.3010 BUY SALMON </s>
-0.3010 BUY SALSA </s>
-0.3010 BUY SALT </s>
-0.6021 BUY SANDWICH </s>
-0.6021 BUY SANDWICH SLICES
-0.3010 BUY SAUCE </s>
-0.3010 BUY SAUSAGE </s>
-0.3010 BUY SCRUBBERS </s>
-0.3010 BUY SEAFOOD </s>
-0.3010 BUY SEEDS </s>
-0.3010 BUY SHAMPOO </s>
-0.3010 BUY SHAVING CREAM
-0.3010 BUY SHORTENING </s>
-0.3010 BUY SHRIMP </s>
-0.3010 BUY SLICED BREAD
-0.3010 BUY SNACKS </s>
-0.6021 BUY SODA </s>
-0.6021 BUY SODA POP
-0.3010 BUY SORBET </s>
-0.3010 BUY SOUP </s>
-0.3010 BUY SOUR CREAM
-0.3010 BUY SOY SAUCE
-0.3010 BUY SPAGHETTI NIGHT
-0.3010 BUY SPICES </s>
-0.3010 BUY SPINACH </s>
-0.3010 BUY SPONGES </s>
-0.3010 BUY SPORTS DRINK
-0.3010 BUY SPRAY </s>
-0.3010 BUY SQUASH </s>
-0.3010 BUY STEAK SAUCE
-0.6021 BUY SUGAR </s>
-0.6021 BUY SUGAR SUBSTITUTE
-0.3010 BUY SUNBLOCK </s>
-0.3010 BUY SUPPLEMENTS </s>
-0.3010 BUY SWISS </s>
-0.3010 BUY SYRUP </s>
-0.3010 BUY TACO NIGHT
-0.3010 BUY TAKE-OUT DELI
-0.3010 BUY TAPE </s>
-0.3010 BUY TEA </s>
-0.3010 BUY THEMED MEALS
-0.3010 BUY TILAPIA </s>
-0.3010 BUY TINNED MEATS
-0.3010 BUY TOFU </s>
-0.3010 BUY TOILET PAPER
-0.3010 BUY TOMATOES </s>
-0.3010 BUY TONIC </s>
-0.3010 BUY TOOTHPASTE </s>
-0.3010 BUY TORTILLAS </s>
-0.3010 BUY TREATS </s>
-0.3010 BUY TUNA </s>
-0.3010 BUY TURKEY </s>
-0.3010 BUY VACUUM BAGS
-0.3010 BUY VANILLA EXTRACT
-0.3010 BUY VARIOUS GROCERIES
-0.3010 BUY VEGETABLE OIL
-0.3010 BUY VEGETABLES </s>
-0.3010 BUY VEGGIE BURGERS
-0.3010 BUY VEGGIES </s>
-0.3010 BUY VINEGAR </s>
-0.3010 BUY VINYL CHLORIDE
-0.3010 BUY VITAMINS </s>
-0.3010 BUY VODKA </s>
-0.3010 BUY WAFFLE MIX
-0.3010 BUY WAX PAPER
-0.3010 BUY WHIPPED CREAM
-0.3010 BUY WHISKEY </s>
-0.3010 BUY WHITE WINE
-0.3010 BUY WINE </s>
-0.3010 BUY WIPES </s>
-0.3010 BUY WORCESTERSHIRE SAUCE
-0.3010 BUY YEAST </s>
-0.3010 BUY YOGURT </s>
-0.3010 BUY ZUCCHINI </s>
-0.3010 CAKE ICING </s>
-0.3010 CANNED FOODS </s>
-0.3010 CAT FOOD </s>
-0.3010 CAT LITTER </s>
-0.3010 CHILI NIGHT </s>
-0.3010 CHIP DIP </s>
-0.3010 CHOCOLATE CHIPS </s>
-0.3010 CLEANING PRODUCTS </s>
-0.3010 CLUB SODA </s>
-0.3010 COOK BANANA BREAD
-0.3010 COOK STRAWBERRY CAKE
-0.3010 CORN CHIPS </s>
-0.3010 COTTAGE CHEESE </s>
-0.3010 COTTON SWABS </s>
-0.3010 CREAM CHEESE </s>
-0.3010 DELI FOOD </s>
-0.3010 DISHWASHER SOAP </s>
-0.3010 DOG FOOD </s>
-0.3010 DRIED FRUIT </s>
-0.3010 ENGLISH MUFFINS </s>
-0.3010 ES AM ES
-0.3010 FACIAL CLEANSER </s>
-0.3010 FACIAL TISSUE </s>
-0.3010 FAKE EGGS </s>
-0.3010 FEMININE PRODUCTS </s>
-0.3010 FISH STICKS </s>
-0.3010 FLEA TREATMENT </s>
-0.3010 FREEZER BAGS </s>
-0.3010 FRESH BREAD </s>
-0.3010 FRESH FRUITS </s>
-0.3010 FRESH VEGETABLES </s>
-0.3010 FRUIT JUICE </s>
-0.3010 GARBAGE BAGS </s>
-0.3010 GLASS CLEANER </s>
-0.3010 GOAT CHEESE </s>
-0.3010 GRANOLA BARS </s>
-0.3010 GREETING CARD </s>
-0.3010 GROUND BEEF </s>
-0.3010 HAIR GEL </s>
-0.3010 HALF AND HALF
-0.3010 HAND SOAP </s>
-0.3010 HEAVY CREAM </s>
-0.3010 HOT DOGS </s>
-0.3010 HOT SAUCE </s>
-0.3010 ICE CREAM </s>
-0.3010 INSECT REPELLENT </s>
-0.3010 INSTANT POTATOES </s>
-0.3010 JUICE CONCENTRATE </s>
-0.3010 LIGHT BULBS </s>
-0.3010 LIME JUICE </s>
-0.3010 LIP BALM </s>
-0.3010 MAC AN CHEESE
-0.3010 MAC AND CHEESE
-0.3010 MOISTURIZING LOTION </s>
-0.3010 MOP HEAD </s>
-0.3010 NON-STICK SPRAY </s>
-0.3010 OFFICE SUPPLIES </s>
-0.3010 OLIVE OIL </s>
-0.3010 OTHER STUFF </s>
-0.3010 PACKAGED MEALS </s>
-0.3010 PAIN RELIEVER </s>
-0.3010 PAPER TOWELS </s>
-0.3010 PASTA SAUCE </s>
-0.3010 PEANUT BUTTER </s>
-0.3010 PET SHAMPOO </s>
-0.3010 PITA BREAD </s>
-0.3010 PIZZA NIGHT </s>
-0.3010 PLASTIC WRAP </s>
-0.3010 POSTAGE STAMPS </s>
-0.3010 PRESCRIPTION PICK-UP </s>
-0.3010 PRINTER PAPER </s>
-0.3010 READY BAKE BREADS
-0.3010 RED PEPPER </s>
-0.3010 RED WINE </s>
-0.3010 REFRIGERATED ITEMS </s>
-0.3010 SALAD DRESSING </s>
-0.3010 SANDWICH SLICES </s>
-0.3010 SEND ES AM
-0.3010 SHAVING CREAM </s>
-0.3010 SLICED BREAD </s>
-0.3010 SODA POP </s>
-0.3010 SOUR CREAM </s>
-0.3010 SOY SAUCE </s>
-0.3010 SPAGHETTI NIGHT </s>
-0.3010 SPORTS DRINK </s>
-0.3010 STEAK SAUCE </s>
-0.3010 STRAWBERRY CAKE </s>
-0.3010 SUGAR SUBSTITUTE </s>
-0.3010 TACO NIGHT </s>
-0.3010 TAKE-OUT DELI FOOD
-0.3010 THEMED MEALS </s>
-0.3010 TINNED MEATS </s>
-0.3010 TOILET PAPER </s>
-0.3010 VACUUM BAGS </s>
-0.3010 VANILLA EXTRACT </s>
-0.3010 VARIOUS GROCERIES </s>
-0.3010 VEGETABLE OIL </s>
-0.3010 VEGGIE BURGERS </s>
-0.3010 VINYL CHLORIDE </s>
-0.3010 WAFFLE MIX </s>
-0.3010 WAX PAPER </s>
-0.3010 WHIPPED CREAM </s>
-0.3010 WHITE WINE </s>
-0.3010 WORCESTERSHIRE SAUCE </s>

\end\
