Language model created by QuickLM on Tue May 18 20:15:48 EDT 2010
Copyright (c) 1996-2010 Carnegie Mellon University and Alexander I. Rudnicky

The model is in standard ARPA format, designed by Doug Paul while he was at MITRE.

The code that was used to produce this language model is available in Open Source.
Please visit http://www.speech.cs.cmu.edu/tools/ for more information

The (fixed) discount mass is 0.5. The backoffs are computed using the ratio method.
This model based on a corpus of 341 sentences and 383 words

\data\
ngram 1=383
ngram 2=719
ngram 3=773

\1-grams:
-0.9415 </s> -0.3010
-0.9415 <s> -0.2483
-3.4742 AIDS -0.2483
-3.4742 AIR -0.3009
-3.4742 ALLERGY -0.2483
-3.4742 ALUMINUM -0.3009
-3.4742 AN -0.3000
-3.1732 AND -0.2997
-3.4742 ANTACID -0.2483
-3.4742 ANTIBIOTIC -0.2483
-3.4742 ANTIDIARRHEAL -0.2483
-3.4742 ANTIPERSPIRANT -0.2483
-3.4742 APPLES -0.2483
-3.4742 APPLESAUCE -0.2483
-3.4742 ARSENIC -0.2483
-3.4742 ASBESTOS -0.2483
-3.4742 ASPARAGUS -0.2483
-3.4742 ASPIRIN -0.2483
-3.4742 AUTOMOTIVE -0.2483
-3.4742 AVOCADOS -0.2483
-2.9971 BABY -0.3000
-3.4742 BACON -0.2483
-3.1732 BAGELS -0.2483
-2.9971 BAGS -0.2483
-3.4742 BAKE -0.3009
-3.1732 BAKED -0.3007
-3.1732 BAKING -0.2481
-3.4742 BALLS -0.2483
-3.4742 BALM -0.2483
-3.4742 BANANAS -0.2483
-3.4742 BAND -0.3009
-3.4742 BAR -0.3009
-3.4742 BARS -0.2483
-3.4742 BASIL -0.2483
-3.4742 BATH -0.3006
-3.4742 BATHROOM -0.3007
-3.4742 BATTERIES -0.2483
-3.4742 BEANS -0.2483
-3.4742 BEE -0.3009
-3.1732 BEEF -0.2483
-3.4742 BEER -0.2483
-3.4742 BERRIES -0.2483
-3.4742 BEVERAGES -0.2483
-3.4742 BLACK -0.3007
-3.4742 BLEACH -0.2483
-3.4742 BLEU -0.3000
-3.4742 BOUILLON -0.3009
-2.7752 BREAD -0.2481
-3.4742 BREADS -0.2483
-3.4742 BREAKFASTS -0.2483
-3.4742 BROCCOLI -0.2483
-3.4742 BROTH -0.2483
-3.4742 BROWNIE -0.3006
-3.4742 BULBS -0.2483
-3.4742 BUNS -0.2483
-3.4742 BURGER -0.3003
-3.4742 BURGERS -0.2483
-3.4742 BURRITOS -0.2483
-3.1732 BUTTER -0.2483
-0.9415 BUY -0.2416
-2.9971 CAKE -0.2481
-3.4742 CANDY -0.2483
-3.4742 CANNED -0.3009
-3.4742 CARCINOGENS -0.2483
-3.4742 CARD -0.2483
-3.4742 CARROTS -0.2483
-3.1732 CAT -0.3003
-3.4742 CATFISH -0.2483
-3.4742 CAULIFLOWER -0.2483
-3.4742 CDRS -0.2483
-3.4742 CELERY -0.2483
-3.4742 CEREAL -0.2483
-3.4742 CHAMPAGNE -0.2483
-3.4742 CHARCOAL -0.2483
-3.4742 CHEDDAR -0.2483
-2.6291 CHEESE -0.2483
-3.4742 CHERRIES -0.2483
-3.1732 CHICKEN -0.2483
-3.1732 CHILI -0.2474
-3.4742 CHIP -0.3009
-3.1732 CHIPS -0.2483
-3.4742 CHLORIDE -0.2483
-3.4742 CHOCOLATE -0.3007
-3.4742 CIGARETTES -0.2483
-3.4742 CILANTRO -0.2483
-3.4742 CINNAMON -0.2483
-3.1732 CLEANER -0.2483
-3.4742 CLEANING -0.3007
-3.4742 CLEANSER -0.2483
-3.4742 CLUB -0.3006
-3.4742 COCOA -0.2483
-3.4742 COFFEE -0.2483
-3.4742 CONCENTRATE -0.2483
-3.4742 CONDIMENTS -0.2483
-3.4742 CONDITIONER -0.2483
-3.4742 CONDOMS -0.2483
-3.1732 COOKIES -0.2483
-3.1732 CORN -0.2479
-3.4742 COSMETICS -0.2483
-3.4742 COTTAGE -0.3000
-3.4742 COTTON -0.3009
-3.4742 CRAB -0.2483
-3.4742 CRACKERS -0.2483
-2.6961 CREAM -0.2471
-3.4742 CROISSANTS -0.2483
-3.4742 CRUMBS -0.2483
-3.4742 CUBES -0.2483
-3.4742 CUCUMBERS -0.2483
-3.4742 DAIRY -0.2483
-3.4742 DELI -0.3004
-3.4742 DEODORANT -0.2483
-3.4742 DETERGENT -0.2483
-3.4742 DIAPERS -0.2483
-3.4742 DINNERS -0.2483
-3.4742 DIP -0.2483
-3.4742 DISH -0.2483
-3.4742 DISHWASHER -0.3006
-3.4742 DOG -0.3004
-3.4742 DOGS -0.2483
-3.4742 DONUTS -0.2483
-3.4742 DRESSING -0.2483
-3.4742 DRIED -0.3006
-3.4742 DRINK -0.2483
-3.4742 DVDRS -0.2483
-3.1732 EGGS -0.2483
-3.4742 ENGLISH -0.3009
-3.4742 ENVELOPES -0.2483
-3.4742 EXTRACT -0.2483
-3.1732 FACIAL -0.3007
-3.4742 FAKE -0.3007
-3.4742 FEMININE -0.3007
-3.4742 FETA -0.2483
-3.4742 FILTERS -0.2483
-3.4742 FISH -0.3009
-3.4742 FLEA -0.3009
-3.4742 FLOSS -0.2483
-3.4742 FLOUR -0.2483
-3.4742 FLOWERS -0.2483
-3.4742 FOIL -0.2483
-2.8722 FOOD -0.2483
-3.4742 FOODS -0.2483
-3.4742 FORMULA -0.2483
-3.4742 FREEZER -0.3006
-2.9971 FRESH -0.2999
-3.4742 FRESHENER -0.2483
-3.4742 FRIES -0.2483
-3.4742 FROZEN -0.2483
-2.9971 FRUIT -0.2476
-3.4742 FRUITS -0.2483
-3.4742 GARBAGE -0.3006
-3.4742 GARLIC -0.2483
-3.4742 GEL -0.2483
-3.4742 GIN -0.2483
-3.4742 GINGER -0.2483
-3.4742 GLASS -0.3007
-3.4742 GLUE -0.2483
-3.4742 GOAT -0.3000
-3.4742 GOODS -0.2483
-3.4742 GRANOLA -0.3009
-3.4742 GRAPEFRUIT -0.2483
-3.4742 GRAPES -0.2483
-3.4742 GRAVY -0.2483
-3.4742 GREENS -0.2483
-3.4742 GREETING -0.3009
-3.4742 GROCERIES -0.2483
-3.4742 GROUND -0.3007
-3.4742 GUM -0.2483
-3.4742 HAIR -0.3009
-3.1732 HALF -0.2479
-3.4742 HAM -0.2483
-3.4742 HAND -0.3006
-3.4742 HEAD -0.2483
-3.4742 HEAVY -0.3002
-3.4742 HERBS -0.2483
-3.4742 HONEY -0.2483
-3.1732 HOT -0.2999
-3.4742 ICE -0.3002
-3.4742 ICECREAM -0.2483
-3.4742 ICING -0.2483
-3.4742 INSECT -0.3009
-3.4742 INSTANT -0.3007
-3.4742 ITEMS -0.2483
-3.4742 JAM -0.2483
-3.4742 JELLY -0.2483
-2.8722 JUICE -0.2481
-3.4742 KETCHUP -0.2483
-3.4742 KITCHEN -0.2483
-3.4742 KIWIS -0.2483
-3.4742 LEMON -0.2483
-3.4742 LEMONS -0.2483
-3.4742 LETTUCE -0.2483
-3.4742 LIGHT -0.3009
-3.4742 LIME -0.3004
-3.4742 LIMES -0.2483
-3.4742 LIP -0.3009
-3.4742 LITTER -0.2483
-3.4742 LOBSTER -0.2483
-3.1732 LOTION -0.2483
-3.4742 LUNCHMEAT -0.2483
-3.1732 MAC -0.3006
-3.4742 MAGAZINE -0.2483
-3.4742 MARGARINE -0.2483
-3.4742 MAYONNAISE -0.2483
-3.1732 MEALS -0.2483
-3.4742 MEAT -0.2483
-3.4742 MEATS -0.2483
-3.4742 MEDICAL -0.2483
-3.4742 MEDICINE -0.2483
-3.4742 MELON -0.2483
-3.4742 MILK -0.2483
-3.4742 MINT -0.2483
-2.9971 MIX -0.2483
-3.4742 MIXERS -0.2483
-3.4742 MOISTURIZING -0.3007
-3.4742 MOP -0.3009
-3.4742 MOUTHWASH -0.2483
-3.4742 MOZZARELLA -0.2483
-3.4742 MUFFINS -0.2483
-3.4742 MUSHROOMS -0.2483
-3.4742 MUSSELS -0.2483
-3.4742 MUSTARD -0.2483
-3.4742 NAPKINS -0.2483
-3.4742 NECTARINES -0.2483
-3.4742 NEWSPAPER -0.2483
-2.7752 NIGHT -0.2483
-3.4742 NON-STICK -0.3007
-3.4742 NOTEPAD -0.2483
-3.4742 NUTS -0.2483
-3.4742 OATMEAL -0.2483
-3.4742 OFFICE -0.3009
-3.1732 OIL -0.2483
-3.4742 OLIVE -0.3007
-3.4742 OLIVES -0.2483
-3.4742 ONIONS -0.2483
-3.4742 ORANGES -0.2483
-3.4742 OREGANO -0.2483
-3.4742 OTHER -0.3007
-3.4742 OYSTERS -0.2483
-3.4742 PACKAGED -0.3007
-3.4742 PAIN -0.3009
-3.4742 PANCAKE -0.2483
-2.8722 PAPER -0.2481
-3.4742 PAPRIKA -0.2483
-3.4742 PARMESAN -0.2483
-3.4742 PARSLEY -0.2483
-3.1732 PASTA -0.2471
-3.4742 PASTRIES -0.2483
-3.4742 PEACHES -0.2483
-3.4742 PEANUT -0.3007
-3.4742 PEARS -0.2483
-3.4742 PENCILS -0.2483
-3.4742 PENS -0.2483
-3.1732 PEPPER -0.2483
-3.4742 PEPPERS -0.2483
-3.4742 PET -0.3007
-3.4742 PETS -0.2483
-3.4742 PICK-UP -0.2483
-3.4742 PICKLES -0.2483
-3.4742 PIE -0.2483
-3.4742 PITA -0.3003
-3.4742 PIZZA -0.3003
-3.4742 PIZZAS -0.2483
-3.4742 PLASTIC -0.3009
-3.4742 PLUMS -0.2483
-3.4742 POP -0.2483
-3.4742 POPCORN -0.2483
-3.4742 POPSICLES -0.2483
-3.4742 PORK -0.2483
-3.4742 POSTAGE -0.3009
-3.4742 POTATO -0.2483
-3.1732 POTATOES -0.2483
-3.4742 POWDER -0.2483
-3.4742 PRESCRIPTION -0.3009
-3.4742 PRESERVES -0.2483
-3.4742 PRETZELS -0.2483
-3.4742 PRINTER -0.3004
-3.1732 PRODUCTS -0.2483
-3.4742 PROPANE -0.2483
-3.4742 PROTECTION -0.2483
-3.4742 PROVOLONE -0.2483
-3.4742 QUE -0.3000
-3.4742 RADIONUCLIDES -0.2483
-3.4742 RAZORS -0.2483
-3.4742 READY -0.3009
-3.1732 RED -0.3003
-3.4742 REFRIGERATED -0.3009
-3.4742 RELIEVER -0.2483
-3.4742 RELISH -0.2483
-3.4742 REPELLENT -0.2483
-3.4742 RICE -0.2483
-3.4742 RICOTTA -0.2483
-3.4742 ROLLS -0.2483
-3.4742 RUM -0.2483
-3.4742 SAKE -0.2483
-3.4742 SALAD -0.3009
-3.4742 SALMON -0.2483
-3.4742 SALSA -0.2483
-3.4742 SALT -0.2483
-3.1732 SANDWICH -0.2481
-2.6291 SAUCE -0.2483
-3.4742 SAUSAGE -0.2483
-3.4742 SCRUBBERS -0.2483
-3.4742 SEAFOOD -0.2483
-3.4742 SEEDS -0.2483
-3.1732 SHAMPOO -0.2483
-3.4742 SHAVING -0.3002
-3.4742 SHORTENING -0.2483
-3.4742 SHRIMP -0.2483
-3.4742 SLICED -0.3003
-3.4742 SLICES -0.2483
-3.4742 SNACKS -0.2483
-2.9971 SOAP -0.2483
-2.9971 SODA -0.2481
-3.4742 SORBET -0.2483
-3.4742 SOUP -0.2483
-3.4742 SOUR -0.3002
-3.4742 SOY -0.3000
-3.4742 SPAGHETTI -0.3003
-3.4742 SPICES -0.2483
-3.4742 SPINACH -0.2483
-3.4742 SPONGES -0.2483
-3.4742 SPORTS -0.3009
-3.1732 SPRAY -0.2483
-3.4742 SQUASH -0.2483
-3.4742 STAMPS -0.2483
-3.4742 STEAK -0.3000
-3.4742 STICKS -0.2483
-3.1732 STUFF -0.2483
-3.4742 SUBSTITUTE -0.2483
-3.1732 SUGAR -0.2481
-3.4742 SUNBLOCK -0.2483
-3.4742 SUPPLEMENTS -0.2483
-3.4742 SUPPLIES -0.2483
-3.4742 SWABS -0.2483
-3.4742 SWISS -0.2483
-3.4742 SYRUP -0.2483
-3.4742 T -0.3009
-3.4742 TACO -0.3003
-3.4742 TAKE-OUT -0.3009
-3.4742 TAPE -0.2483
-3.4742 TATER -0.3009
-3.4742 TEA -0.2483
-3.4742 THEMED -0.3007
-3.4742 TILAPIA -0.2483
-3.4742 TINNED -0.3009
-3.4742 TISSUE -0.2483
-3.4742 TOFU -0.2483
-3.4742 TOILET -0.3004
-3.1732 TOMATOES -0.2483
-3.4742 TONIC -0.2483
-3.4742 TOOTHPASTE -0.2483
-3.4742 TORTILLAS -0.2483
-3.4742 TOTS -0.2483
-3.4742 TOWELS -0.2483
-3.4742 TREATMENT -0.2483
-3.4742 TREATS -0.2483
-3.1732 TUNA -0.2483
-3.1732 TURKEY -0.2483
-3.4742 V -0.3009
-3.4742 VACUUM -0.3006
-3.4742 VANILLA -0.3009
-3.4742 VARIOUS -0.3009
-3.4742 VEGETABLE -0.3007
-3.1732 VEGETABLES -0.2483
-3.4742 VEGGIE -0.3009
-3.4742 VEGGIES -0.2483
-3.4742 VINEGAR -0.2483
-3.4742 VINYL -0.3009
-3.4742 VITAMINS -0.2483
-3.4742 VODKA -0.2483
-3.4742 WAFFLE -0.3006
-3.4742 WASH -0.2483
-3.4742 WAX -0.3004
-3.4742 WHIPPED -0.3002
-3.4742 WHISKEY -0.2483
-3.4742 WHITE -0.3006
-2.9971 WINE -0.2483
-3.4742 WIPES -0.2483
-3.4742 WORCESTERSHIRE -0.3000
-3.4742 WRAP -0.2483
-3.4742 YEAST -0.2483
-3.4742 YOGURT -0.2483
-3.4742 ZUCCHINI -0.2483

\2-grams:
-0.3010 <s> BUY -0.0000
-0.3010 AIDS </s> -0.3010
-0.3010 AIR FRESHENER 0.0000
-0.3010 ALLERGY </s> -0.3010
-0.3010 ALUMINUM FOIL 0.0000
-0.3010 AN CHEESE 0.0000
-0.6021 AND CHEESE 0.0000
-0.6021 AND HALF -0.1761
-0.3010 ANTACID </s> -0.3010
-0.3010 ANTIBIOTIC </s> -0.3010
-0.3010 ANTIDIARRHEAL </s> -0.3010
-0.3010 ANTIPERSPIRANT </s> -0.3010
-0.3010 APPLES </s> -0.3010
-0.3010 APPLESAUCE </s> -0.3010
-0.3010 ARSENIC </s> -0.3010
-0.3010 ASBESTOS </s> -0.3010
-0.3010 ASPARAGUS </s> -0.3010
-0.3010 ASPIRIN </s> -0.3010
-0.3010 AUTOMOTIVE </s> -0.3010
-0.3010 AVOCADOS </s> -0.3010
-0.7782 BABY FOOD 0.0000
-0.7782 BABY STUFF 0.0000
-0.7782 BABY WASH 0.0000
-0.3010 BACON </s> -0.3010
-0.3010 BAGELS </s> -0.3010
-0.3010 BAGS </s> -0.3010
-0.3010 BAKE BREADS 0.0000
-0.6021 BAKED BEANS 0.0000
-0.6021 BAKED GOODS 0.0000
-0.6021 BAKING </s> -0.3010
-0.6021 BAKING POWDER 0.0000
-0.3010 BALLS </s> -0.3010
-0.3010 BALM </s> -0.3010
-0.3010 BANANAS </s> -0.3010
-0.3010 BAND AIDS 0.0000
-0.3010 BAR BEE 0.0000
-0.3010 BARS </s> -0.3010
-0.3010 BASIL </s> -0.3010
-0.3010 BATH SOAP 0.0000
-0.3010 BATHROOM CLEANER 0.0000
-0.3010 BATTERIES </s> -0.3010
-0.3010 BEANS </s> -0.3010
-0.3010 BEE QUE 0.0000
-0.3010 BEEF </s> -0.3010
-0.3010 BEER </s> -0.3010
-0.3010 BERRIES </s> -0.3010
-0.3010 BEVERAGES </s> -0.3010
-0.3010 BLACK PEPPER 0.0000
-0.3010 BLEACH </s> -0.3010
-0.3010 BLEU CHEESE 0.0000
-0.3010 BOUILLON CUBES 0.0000
-0.3979 BREAD </s> -0.3010
-1.0000 BREAD CRUMBS 0.0000
-0.3010 BREADS </s> -0.3010
-0.3010 BREAKFASTS </s> -0.3010
-0.3010 BROCCOLI </s> -0.3010
-0.3010 BROTH </s> -0.3010
-0.3010 BROWNIE MIX 0.0000
-0.3010 BULBS </s> -0.3010
-0.3010 BUNS </s> -0.3010
-0.3010 BURGER NIGHT 0.0000
-0.3010 BURGERS </s> -0.3010
-0.3010 BURRITOS </s> -0.3010
-0.3010 BUTTER </s> -0.3010
-2.8338 BUY AIR 0.0000
-2.8338 BUY ALLERGY 0.0000
-2.8338 BUY ALUMINUM 0.0000
-2.8338 BUY ANTACID 0.0000
-2.8338 BUY ANTIBIOTIC 0.0000
-2.8338 BUY ANTIDIARRHEAL 0.0000
-2.8338 BUY ANTIPERSPIRANT 0.0000
-2.8338 BUY APPLES 0.0000
-2.8338 BUY APPLESAUCE 0.0000
-2.8338 BUY ARSENIC 0.0000
-2.8338 BUY ASBESTOS 0.0000
-2.8338 BUY ASPARAGUS 0.0000
-2.8338 BUY ASPIRIN 0.0000
-2.8338 BUY AUTOMOTIVE 0.0000
-2.8338 BUY AVOCADOS 0.0000
-2.3567 BUY BABY 0.0000
-2.8338 BUY BACON 0.0000
-2.5328 BUY BAGELS 0.0000
-2.5328 BUY BAKED 0.0000
-2.5328 BUY BAKING 0.0000
-2.8338 BUY BALLS 0.0000
-2.8338 BUY BANANAS 0.0000
-2.8338 BUY BAND 0.0000
-2.8338 BUY BAR 0.0000
-2.8338 BUY BASIL 0.0000
-2.8338 BUY BATH 0.0000
-2.8338 BUY BATHROOM 0.0000
-2.8338 BUY BATTERIES 0.0000
-2.8338 BUY BEEF 0.0000
-2.8338 BUY BEER 0.0000
-2.8338 BUY BERRIES 0.0000
-2.8338 BUY BEVERAGES 0.0000
-2.8338 BUY BLACK 0.0000
-2.8338 BUY BLEACH 0.0000
-2.8338 BUY BLEU 0.0000
-2.8338 BUY BOUILLON 0.0000
-2.5328 BUY BREAD 0.0000
-2.8338 BUY BREAKFASTS 0.0000
-2.8338 BUY BROCCOLI 0.0000
-2.8338 BUY BROTH 0.0000
-2.8338 BUY BROWNIE 0.0000
-2.8338 BUY BUNS 0.0000
-2.8338 BUY BURGER 0.0000
-2.8338 BUY BURRITOS 0.0000
-2.8338 BUY BUTTER 0.0000
-2.3567 BUY CAKE 0.0000
-2.8338 BUY CANDY 0.0000
-2.8338 BUY CANNED 0.0000
-2.8338 BUY CARCINOGENS 0.0000
-2.8338 BUY CARROTS 0.0000
-2.5328 BUY CAT 0.0000
-2.8338 BUY CATFISH 0.0000
-2.8338 BUY CAULIFLOWER 0.0000
-2.8338 BUY CDRS 0.0000
-2.8338 BUY CELERY 0.0000
-2.8338 BUY CEREAL 0.0000
-2.8338 BUY CHAMPAGNE 0.0000
-2.8338 BUY CHARCOAL 0.0000
-2.8338 BUY CHEDDAR 0.0000
-2.8338 BUY CHEESE 0.0000
-2.8338 BUY CHERRIES 0.0000
-2.5328 BUY CHICKEN 0.0000
-2.5328 BUY CHILI 0.0000
-2.8338 BUY CHIP 0.0000
-2.8338 BUY CHOCOLATE 0.0000
-2.8338 BUY CIGARETTES 0.0000
-2.8338 BUY CILANTRO 0.0000
-2.8338 BUY CINNAMON 0.0000
-2.8338 BUY CLEANING 0.0000
-2.8338 BUY CLUB 0.0000
-2.8338 BUY COCOA 0.0000
-2.8338 BUY COFFEE 0.0000
-2.8338 BUY CONDIMENTS 0.0000
-2.8338 BUY CONDITIONER 0.0000
-2.8338 BUY CONDOMS 0.0000
-2.5328 BUY COOKIES 0.0000
-2.5328 BUY CORN 0.0000
-2.8338 BUY COSMETICS 0.0000
-2.8338 BUY COTTAGE 0.0000
-2.8338 BUY COTTON 0.0000
-2.8338 BUY CRAB 0.0000
-2.8338 BUY CRACKERS 0.0000
-2.8338 BUY CREAM -0.2632
-2.8338 BUY CROISSANTS 0.0000
-2.8338 BUY CUCUMBERS 0.0000
-2.8338 BUY DAIRY 0.0000
-2.8338 BUY DEODORANT 0.0000
-2.8338 BUY DETERGENT 0.0000
-2.8338 BUY DIAPERS 0.0000
-2.8338 BUY DISH 0.0000
-2.8338 BUY DISHWASHER 0.0000
-2.8338 BUY DOG 0.0000
-2.8338 BUY DONUTS 0.0000
-2.8338 BUY DRIED 0.0000
-2.8338 BUY DVDRS 0.0000
-2.8338 BUY EGGS 0.0000
-2.8338 BUY ENGLISH 0.0000
-2.8338 BUY ENVELOPES 0.0000
-2.5328 BUY FACIAL 0.0000
-2.8338 BUY FAKE 0.0000
-2.8338 BUY FEMININE 0.0000
-2.8338 BUY FETA 0.0000
-2.8338 BUY FILTERS 0.0000
-2.8338 BUY FISH 0.0000
-2.8338 BUY FLEA 0.0000
-2.8338 BUY FLOSS 0.0000
-2.8338 BUY FLOUR 0.0000
-2.8338 BUY FLOWERS 0.0000
-2.8338 BUY FORMULA 0.0000
-2.8338 BUY FREEZER 0.0000
-2.3567 BUY FRESH 0.0000
-2.8338 BUY FRIES 0.0000
-2.8338 BUY FROZEN 0.0000
-2.5328 BUY FRUIT 0.0000
-2.8338 BUY GARBAGE 0.0000
-2.8338 BUY GARLIC 0.0000
-2.8338 BUY GIN 0.0000
-2.8338 BUY GINGER 0.0000
-2.8338 BUY GLASS 0.0000
-2.8338 BUY GLUE 0.0000
-2.8338 BUY GOAT 0.0000
-2.8338 BUY GRANOLA 0.0000
-2.8338 BUY GRAPEFRUIT 0.0000
-2.8338 BUY GRAPES 0.0000
-2.8338 BUY GRAVY 0.0000
-2.8338 BUY GREENS 0.0000
-2.8338 BUY GREETING 0.0000
-2.8338 BUY GROUND 0.0000
-2.8338 BUY GUM 0.0000
-2.8338 BUY HAIR 0.0000
-2.8338 BUY HALF -0.1761
-2.8338 BUY HAM 0.0000
-2.8338 BUY HAND 0.0000
-2.8338 BUY HEAVY 0.0000
-2.8338 BUY HERBS 0.0000
-2.8338 BUY HONEY 0.0000
-2.5328 BUY HOT 0.0000
-2.8338 BUY ICE 0.0000
-2.8338 BUY ICECREAM 0.0000
-2.8338 BUY INSECT 0.0000
-2.8338 BUY INSTANT 0.0000
-2.8338 BUY JAM 0.0000
-2.8338 BUY JELLY 0.0000
-2.5328 BUY JUICE 0.0000
-2.8338 BUY KETCHUP 0.0000
-2.8338 BUY KITCHEN 0.0000
-2.8338 BUY KIWIS 0.0000
-2.8338 BUY LEMON 0.0000
-2.8338 BUY LEMONS 0.0000
-2.8338 BUY LETTUCE 0.0000
-2.8338 BUY LIGHT 0.0000
-2.8338 BUY LIME 0.0000
-2.8338 BUY LIMES 0.0000
-2.8338 BUY LIP 0.0000
-2.8338 BUY LOBSTER 0.0000
-2.8338 BUY LOTION 0.0000
-2.8338 BUY LUNCHMEAT 0.0000
-2.5328 BUY MAC 0.0000
-2.8338 BUY MAGAZINE 0.0000
-2.8338 BUY MARGARINE 0.0000
-2.8338 BUY MAYONNAISE 0.0000
-2.8338 BUY MEAT 0.0000
-2.8338 BUY MEDICAL 0.0000
-2.8338 BUY MEDICINE 0.0000
-2.8338 BUY MELON 0.0000
-2.8338 BUY MILK 0.0000
-2.8338 BUY MINT 0.0000
-2.8338 BUY MIX 0.0000
-2.8338 BUY MIXERS 0.0000
-2.8338 BUY MOISTURIZING 0.0000
-2.8338 BUY MOP 0.0000
-2.8338 BUY MOUTHWASH 0.0000
-2.8338 BUY MOZZARELLA 0.0000
-2.8338 BUY MUSHROOMS 0.0000
-2.8338 BUY MUSSELS 0.0000
-2.8338 BUY MUSTARD 0.0000
-2.8338 BUY NAPKINS 0.0000
-2.8338 BUY NECTARINES 0.0000
-2.8338 BUY NEWSPAPER 0.0000
-2.8338 BUY NON-STICK 0.0000
-2.8338 BUY NOTEPAD 0.0000
-2.8338 BUY NUTS 0.0000
-2.8338 BUY OATMEAL 0.0000
-2.8338 BUY OFFICE 0.0000
-2.8338 BUY OLIVE 0.0000
-2.8338 BUY OLIVES 0.0000
-2.8338 BUY ONIONS 0.0000
-2.8338 BUY ORANGES 0.0000
-2.8338 BUY OREGANO 0.0000
-2.8338 BUY OTHER 0.0000
-2.8338 BUY OYSTERS 0.0000
-2.8338 BUY PACKAGED 0.0000
-2.8338 BUY PAIN 0.0000
-2.8338 BUY PANCAKE 0.0000
-2.8338 BUY PAPER -0.2430
-2.8338 BUY PAPRIKA 0.0000
-2.8338 BUY PARMESAN 0.0000
-2.8338 BUY PARSLEY 0.0000
-2.5328 BUY PASTA 0.0000
-2.8338 BUY PASTRIES 0.0000
-2.8338 BUY PEACHES 0.0000
-2.8338 BUY PEANUT 0.0000
-2.8338 BUY PEARS 0.0000
-2.8338 BUY PENCILS 0.0000
-2.8338 BUY PENS 0.0000
-2.8338 BUY PEPPERS 0.0000
-2.8338 BUY PET 0.0000
-2.8338 BUY PETS 0.0000
-2.8338 BUY PICKLES 0.0000
-2.8338 BUY PIE 0.0000
-2.8338 BUY PITA 0.0000
-2.8338 BUY PIZZA 0.0000
-2.8338 BUY PIZZAS 0.0000
-2.8338 BUY PLASTIC 0.0000
-2.8338 BUY PLUMS 0.0000
-2.8338 BUY POPCORN 0.0000
-2.8338 BUY POPSICLES 0.0000
-2.8338 BUY PORK 0.0000
-2.8338 BUY POSTAGE 0.0000
-2.8338 BUY POTATO 0.0000
-2.8338 BUY POTATOES 0.0000
-2.8338 BUY PRESCRIPTION 0.0000
-2.8338 BUY PRESERVES 0.0000
-2.8338 BUY PRETZELS 0.0000
-2.8338 BUY PRINTER 0.0000
-2.8338 BUY PROPANE 0.0000
-2.8338 BUY PROTECTION 0.0000
-2.8338 BUY PROVOLONE 0.0000
-2.8338 BUY RADIONUCLIDES 0.0000
-2.8338 BUY RAZORS 0.0000
-2.8338 BUY READY 0.0000
-2.5328 BUY RED 0.0000
-2.8338 BUY REFRIGERATED 0.0000
-2.8338 BUY RELISH 0.0000
-2.8338 BUY RICE 0.0000
-2.8338 BUY RICOTTA 0.0000
-2.8338 BUY ROLLS 0.0000
-2.8338 BUY RUM 0.0000
-2.8338 BUY SAKE 0.0000
-2.8338 BUY SALAD 0.0000
-2.8338 BUY SALMON 0.0000
-2.8338 BUY SALSA 0.0000
-2.8338 BUY SALT 0.0000
-2.5328 BUY SANDWICH 0.0000
-2.8338 BUY SAUCE 0.0000
-2.8338 BUY SAUSAGE 0.0000
-2.8338 BUY SCRUBBERS 0.0000
-2.8338 BUY SEAFOOD 0.0000
-2.8338 BUY SEEDS 0.0000
-2.8338 BUY SHAMPOO 0.0000
-2.8338 BUY SHAVING 0.0000
-2.8338 BUY SHORTENING 0.0000
-2.8338 BUY SHRIMP 0.0000
-2.8338 BUY SLICED 0.0000
-2.8338 BUY SNACKS 0.0000
-2.5328 BUY SODA 0.0000
-2.8338 BUY SORBET 0.0000
-2.8338 BUY SOUP 0.0000
-2.8338 BUY SOUR 0.0000
-2.8338 BUY SOY 0.0000
-2.8338 BUY SPAGHETTI 0.0000
-2.8338 BUY SPICES 0.0000
-2.8338 BUY SPINACH 0.0000
-2.8338 BUY SPONGES 0.0000
-2.8338 BUY SPORTS 0.0000
-2.8338 BUY SPRAY 0.0000
-2.8338 BUY SQUASH 0.0000
-2.8338 BUY STEAK 0.0000
-2.5328 BUY SUGAR 0.0000
-2.8338 BUY SUNBLOCK 0.0000
-2.8338 BUY SUPPLEMENTS 0.0000
-2.8338 BUY SWISS 0.0000
-2.8338 BUY SYRUP 0.0000
-2.8338 BUY T 0.0000
-2.8338 BUY TACO 0.0000
-2.8338 BUY TAKE-OUT 0.0000
-2.8338 BUY TAPE 0.0000
-2.8338 BUY TATER 0.0000
-2.8338 BUY TEA 0.0000
-2.8338 BUY THEMED 0.0000
-2.8338 BUY TILAPIA 0.0000
-2.8338 BUY TINNED 0.0000
-2.8338 BUY TOFU 0.0000
-2.8338 BUY TOILET 0.0000
-2.5328 BUY TOMATOES 0.0000
-2.8338 BUY TONIC 0.0000
-2.8338 BUY TOOTHPASTE 0.0000
-2.8338 BUY TORTILLAS 0.0000
-2.8338 BUY TREATS 0.0000
-2.5328 BUY TUNA 0.0000
-2.5328 BUY TURKEY 0.0000
-2.8338 BUY VACUUM 0.0000
-2.8338 BUY VANILLA 0.0000
-2.8338 BUY VARIOUS 0.0000
-2.8338 BUY VEGETABLE 0.0000
-2.8338 BUY VEGETABLES 0.0000
-2.8338 BUY VEGGIE 0.0000
-2.8338 BUY VEGGIES 0.0000
-2.8338 BUY VINEGAR 0.0000
-2.8338 BUY VINYL 0.0000
-2.8338 BUY VITAMINS 0.0000
-2.8338 BUY VODKA 0.0000
-2.8338 BUY WAFFLE 0.0000
-2.8338 BUY WAX 0.0000
-2.8338 BUY WHIPPED 0.0000
-2.8338 BUY WHISKEY 0.0000
-2.8338 BUY WHITE 0.0000
-2.8338 BUY WINE 0.0000
-2.8338 BUY WIPES 0.0000
-2.8338 BUY WORCESTERSHIRE 0.0000
-2.8338 BUY YEAST 0.0000
-2.8338 BUY YOGURT 0.0000
-2.8338 BUY ZUCCHINI 0.0000
-0.4771 CAKE </s> -0.3010
-0.7782 CAKE ICING 0.0000
-0.3010 CANDY </s> -0.3010
-0.3010 CANNED FOODS 0.0000
-0.3010 CARCINOGENS </s> -0.3010
-0.3010 CARD </s> -0.3010
-0.3010 CARROTS </s> -0.3010
-0.6021 CAT FOOD 0.0000
-0.6021 CAT LITTER 0.0000
-0.3010 CATFISH </s> -0.3010
-0.3010 CAULIFLOWER </s> -0.3010
-0.3010 CDRS </s> -0.3010
-0.3010 CELERY </s> -0.3010
-0.3010 CEREAL </s> -0.3010
-0.3010 CHAMPAGNE </s> -0.3010
-0.3010 CHARCOAL </s> -0.3010
-0.3010 CHEDDAR </s> -0.3010
-0.3010 CHEESE </s> -0.3010
-0.3010 CHERRIES </s> -0.3010
-0.3010 CHICKEN </s> -0.3010
-0.6021 CHILI </s> -0.3010
-0.6021 CHILI NIGHT 0.0000
-0.3010 CHIP DIP 0.0000
-0.3010 CHIPS </s> -0.3010
-0.3010 CHLORIDE </s> -0.3010
-0.3010 CHOCOLATE CHIPS 0.0000
-0.3010 CIGARETTES </s> -0.3010
-0.3010 CILANTRO </s> -0.3010
-0.3010 CINNAMON </s> -0.3010
-0.3010 CLEANER </s> -0.3010
-0.3010 CLEANING PRODUCTS 0.0000
-0.3010 CLEANSER </s> -0.3010
-0.3010 CLUB SODA -0.1249
-0.3010 COCOA </s> -0.3010
-0.3010 COFFEE </s> -0.3010
-0.3010 CONCENTRATE </s> -0.3010
-0.3010 CONDIMENTS </s> -0.3010
-0.3010 CONDITIONER </s> -0.3010
-0.3010 CONDOMS </s> -0.3010
-0.3010 COOKIES </s> -0.3010
-0.6021 CORN </s> -0.3010
-0.6021 CORN CHIPS 0.0000
-0.3010 COSMETICS </s> -0.3010
-0.3010 COTTAGE CHEESE 0.0000
-0.3010 COTTON SWABS 0.0000
-0.3010 CRAB </s> -0.3010
-0.3010 CRACKERS </s> -0.3010
-0.3802 CREAM </s> -0.3010
-1.0792 CREAM CHEESE 0.0000
-0.3010 CROISSANTS </s> -0.3010
-0.3010 CRUMBS </s> -0.3010
-0.3010 CUBES </s> -0.3010
-0.3010 CUCUMBERS </s> -0.3010
-0.3010 DAIRY </s> -0.3010
-0.3010 DELI FOOD 0.0000
-0.3010 DEODORANT </s> -0.3010
-0.3010 DETERGENT </s> -0.3010
-0.3010 DIAPERS </s> -0.3010
-0.3010 DINNERS </s> -0.3010
-0.3010 DIP </s> -0.3010
-0.3010 DISH </s> -0.3010
-0.3010 DISHWASHER SOAP 0.0000
-0.3010 DOG FOOD 0.0000
-0.3010 DOGS </s> -0.3010
-0.3010 DONUTS </s> -0.3010
-0.3010 DRESSING </s> -0.3010
-0.3010 DRIED FRUIT -0.1249
-0.3010 DRINK </s> -0.3010
-0.3010 DVDRS </s> -0.3010
-0.3010 EGGS </s> -0.3010
-0.3010 ENGLISH MUFFINS 0.0000
-0.3010 ENVELOPES </s> -0.3010
-0.3010 EXTRACT </s> -0.3010
-0.6021 FACIAL CLEANSER 0.0000
-0.6021 FACIAL TISSUE 0.0000
-0.3010 FAKE EGGS 0.0000
-0.3010 FEMININE PRODUCTS 0.0000
-0.3010 FETA </s> -0.3010
-0.3010 FILTERS </s> -0.3010
-0.3010 FISH STICKS 0.0000
-0.3010 FLEA TREATMENT 0.0000
-0.3010 FLOSS </s> -0.3010
-0.3010 FLOUR </s> -0.3010
-0.3010 FLOWERS </s> -0.3010
-0.3010 FOIL </s> -0.3010
-0.3010 FOOD </s> -0.3010
-0.3010 FOODS </s> -0.3010
-0.3010 FORMULA </s> -0.3010
-0.3010 FREEZER BAGS 0.0000
-0.7782 FRESH BREAD -0.0792
-0.7782 FRESH FRUITS 0.0000
-0.7782 FRESH VEGETABLES 0.0000
-0.3010 FRESHENER </s> -0.3010
-0.3010 FRIES </s> -0.3010
-0.3010 FROZEN </s> -0.3010
-0.4771 FRUIT </s> -0.3010
-0.7782 FRUIT JUICE -0.0969
-0.3010 FRUITS </s> -0.3010
-0.3010 GARBAGE BAGS 0.0000
-0.3010 GARLIC </s> -0.3010
-0.3010 GEL </s> -0.3010
-0.3010 GIN </s> -0.3010
-0.3010 GINGER </s> -0.3010
-0.3010 GLASS CLEANER 0.0000
-0.3010 GLUE </s> -0.3010
-0.3010 GOAT CHEESE 0.0000
-0.3010 GOODS </s> -0.3010
-0.3010 GRANOLA BARS 0.0000
-0.3010 GRAPEFRUIT </s> -0.3010
-0.3010 GRAPES </s> -0.3010
-0.3010 GRAVY </s> -0.3010
-0.3010 GREENS </s> -0.3010
-0.3010 GREETING CARD 0.0000
-0.3010 GROCERIES </s> -0.3010
-0.3010 GROUND BEEF 0.0000
-0.3010 GUM </s> -0.3010
-0.3010 HAIR GEL 0.0000
-0.6021 HALF </s> -0.3010
-0.6021 HALF AND -0.1761
-0.3010 HAM </s> -0.3010
-0.3010 HAND SOAP 0.0000
-0.3010 HEAD </s> -0.3010
-0.3010 HEAVY CREAM -0.0669
-0.3010 HERBS </s> -0.3010
-0.3010 HONEY </s> -0.3010
-0.6021 HOT DOGS 0.0000
-0.6021 HOT SAUCE 0.0000
-0.3010 ICE CREAM -0.0669
-0.3010 ICECREAM </s> -0.3010
-0.3010 ICING </s> -0.3010
-0.3010 INSECT REPELLENT 0.0000
-0.3010 INSTANT POTATOES 0.0000
-0.3010 ITEMS </s> -0.3010
-0.3010 JAM </s> -0.3010
-0.3010 JELLY </s> -0.3010
-0.4260 JUICE </s> -0.3010
-0.9031 JUICE CONCENTRATE 0.0000
-0.3010 KETCHUP </s> -0.3010
-0.3010 KITCHEN </s> -0.3010
-0.3010 KIWIS </s> -0.3010
-0.3010 LEMON </s> -0.3010
-0.3010 LEMONS </s> -0.3010
-0.3010 LETTUCE </s> -0.3010
-0.3010 LIGHT BULBS 0.0000
-0.3010 LIME JUICE -0.0969
-0.3010 LIMES </s> -0.3010
-0.3010 LIP BALM 0.0000
-0.3010 LITTER </s> -0.3010
-0.3010 LOBSTER </s> -0.3010
-0.3010 LOTION </s> -0.3010
-0.3010 LUNCHMEAT </s> -0.3010
-0.6021 MAC AN 0.0000
-0.6021 MAC AND -0.1761
-0.3010 MAGAZINE </s> -0.3010
-0.3010 MARGARINE </s> -0.3010
-0.3010 MAYONNAISE </s> -0.3010
-0.3010 MEALS </s> -0.3010
-0.3010 MEAT </s> -0.3010
-0.3010 MEATS </s> -0.3010
-0.3010 MEDICAL </s> -0.3010
-0.3010 MEDICINE </s> -0.3010
-0.3010 MELON </s> -0.3010
-0.3010 MILK </s> -0.3010
-0.3010 MINT </s> -0.3010
-0.3010 MIX </s> -0.3010
-0.3010 MIXERS </s> -0.3010
-0.3010 MOISTURIZING LOTION 0.0000
-0.3010 MOP HEAD 0.0000
-0.3010 MOUTHWASH </s> -0.3010
-0.3010 MOZZARELLA </s> -0.3010
-0.3010 MUFFINS </s> -0.3010
-0.3010 MUSHROOMS </s> -0.3010
-0.3010 MUSSELS </s> -0.3010
-0.3010 MUSTARD </s> -0.3010
-0.3010 NAPKINS </s> -0.3010
-0.3010 NECTARINES </s> -0.3010
-0.3010 NEWSPAPER </s> -0.3010
-0.3010 NIGHT </s> -0.3010
-0.3010 NON-STICK SPRAY 0.0000
-0.3010 NOTEPAD </s> -0.3010
-0.3010 NUTS </s> -0.3010
-0.3010 OATMEAL </s> -0.3010
-0.3010 OFFICE SUPPLIES 0.0000
-0.3010 OIL </s> -0.3010
-0.3010 OLIVE OIL 0.0000
-0.3010 OLIVES </s> -0.3010
-0.3010 ONIONS </s> -0.3010
-0.3010 ORANGES </s> -0.3010
-0.3010 OREGANO </s> -0.3010
-0.3010 OTHER STUFF 0.0000
-0.3010 OYSTERS </s> -0.3010
-0.3010 PACKAGED MEALS 0.0000
-0.3010 PAIN RELIEVER 0.0000
-0.3010 PANCAKE </s> -0.3010
-0.4260 PAPER </s> -0.3010
-0.9031 PAPER TOWELS 0.0000
-0.3010 PAPRIKA </s> -0.3010
-0.3010 PARMESAN </s> -0.3010
-0.3010 PARSLEY </s> -0.3010
-0.6021 PASTA </s> -0.3010
-0.6021 PASTA SAUCE 0.0000
-0.3010 PASTRIES </s> -0.3010
-0.3010 PEACHES </s> -0.3010
-0.3010 PEANUT BUTTER 0.0000
-0.3010 PEARS </s> -0.3010
-0.3010 PENCILS </s> -0.3010
-0.3010 PENS </s> -0.3010
-0.3010 PEPPER </s> -0.3010
-0.3010 PEPPERS </s> -0.3010
-0.3010 PET SHAMPOO 0.0000
-0.3010 PETS </s> -0.3010
-0.3010 PICK-UP </s> -0.3010
-0.3010 PICKLES </s> -0.3010
-0.3010 PIE </s> -0.3010
-0.3010 PITA BREAD -0.0792
-0.3010 PIZZA NIGHT 0.0000
-0.3010 PIZZAS </s> -0.3010
-0.3010 PLASTIC WRAP 0.0000
-0.3010 PLUMS </s> -0.3010
-0.3010 POP </s> -0.3010
-0.3010 POPCORN </s> -0.3010
-0.3010 POPSICLES </s> -0.3010
-0.3010 PORK </s> -0.3010
-0.3010 POSTAGE STAMPS 0.0000
-0.3010 POTATO </s> -0.3010
-0.3010 POTATOES </s> -0.3010
-0.3010 POWDER </s> -0.3010
-0.3010 PRESCRIPTION PICK-UP 0.0000
-0.3010 PRESERVES </s> -0.3010
-0.3010 PRETZELS </s> -0.3010
-0.3010 PRINTER PAPER -0.0969
-0.3010 PRODUCTS </s> -0.3010
-0.3010 PROPANE </s> -0.3010
-0.3010 PROTECTION </s> -0.3010
-0.3010 PROVOLONE </s> -0.3010
-0.3010 QUE SAUCE 0.0000
-0.3010 RADIONUCLIDES </s> -0.3010
-0.3010 RAZORS </s> -0.3010
-0.3010 READY BAKE 0.0000
-0.6021 RED PEPPER 0.0000
-0.6021 RED WINE 0.0000
-0.3010 REFRIGERATED ITEMS 0.0000
-0.3010 RELIEVER </s> -0.3010
-0.3010 RELISH </s> -0.3010
-0.3010 REPELLENT </s> -0.3010
-0.3010 RICE </s> -0.3010
-0.3010 RICOTTA </s> -0.3010
-0.3010 ROLLS </s> -0.3010
-0.3010 RUM </s> -0.3010
-0.3010 SAKE </s> -0.3010
-0.3010 SALAD DRESSING 0.0000
-0.3010 SALMON </s> -0.3010
-0.3010 SALSA </s> -0.3010
-0.3010 SALT </s> -0.3010
-0.6021 SANDWICH </s> -0.3010
-0.6021 SANDWICH SLICES 0.0000
-0.3010 SAUCE </s> -0.3010
-0.3010 SAUSAGE </s> -0.3010
-0.3010 SCRUBBERS </s> -0.3010
-0.3010 SEAFOOD </s> -0.3010
-0.3010 SEEDS </s> -0.3010
-0.3010 SHAMPOO </s> -0.3010
-0.3010 SHAVING CREAM -0.0669
-0.3010 SHORTENING </s> -0.3010
-0.3010 SHRIMP </s> -0.3010
-0.3010 SLICED BREAD -0.0792
-0.3010 SLICES </s> -0.3010
-0.3010 SNACKS </s> -0.3010
-0.3010 SOAP </s> -0.3010
-0.4771 SODA </s> -0.3010
-0.7782 SODA POP 0.0000
-0.3010 SORBET </s> -0.3010
-0.3010 SOUP </s> -0.3010
-0.3010 SOUR CREAM -0.0669
-0.3010 SOY SAUCE 0.0000
-0.3010 SPAGHETTI NIGHT 0.0000
-0.3010 SPICES </s> -0.3010
-0.3010 SPINACH </s> -0.3010
-0.3010 SPONGES </s> -0.3010
-0.3010 SPORTS DRINK 0.0000
-0.3010 SPRAY </s> -0.3010
-0.3010 SQUASH </s> -0.3010
-0.3010 STAMPS </s> -0.3010
-0.3010 STEAK SAUCE 0.0000
-0.3010 STICKS </s> -0.3010
-0.3010 STUFF </s> -0.3010
-0.3010 SUBSTITUTE </s> -0.3010
-0.6021 SUGAR </s> -0.3010
-0.6021 SUGAR SUBSTITUTE 0.0000
-0.3010 SUNBLOCK </s> -0.3010
-0.3010 SUPPLEMENTS </s> -0.3010
-0.3010 SUPPLIES </s> -0.3010
-0.3010 SWABS </s> -0.3010
-0.3010 SWISS </s> -0.3010
-0.3010 SYRUP </s> -0.3010
-0.3010 T V 0.0000
-0.3010 TACO NIGHT 0.0000
-0.3010 TAKE-OUT DELI 0.0000
-0.3010 TAPE </s> -0.3010
-0.3010 TATER TOTS 0.0000
-0.3010 TEA </s> -0.3010
-0.3010 THEMED MEALS 0.0000
-0.3010 TILAPIA </s> -0.3010
-0.3010 TINNED MEATS 0.0000
-0.3010 TISSUE </s> -0.3010
-0.3010 TOFU </s> -0.3010
-0.3010 TOILET PAPER -0.0969
-0.3010 TOMATOES </s> -0.3010
-0.3010 TONIC </s> -0.3010
-0.3010 TOOTHPASTE </s> -0.3010
-0.3010 TORTILLAS </s> -0.3010
-0.3010 TOTS </s> -0.3010
-0.3010 TOWELS </s> -0.3010
-0.3010 TREATMENT </s> -0.3010
-0.3010 TREATS </s> -0.3010
-0.3010 TUNA </s> -0.3010
-0.3010 TURKEY </s> -0.3010
-0.3010 V DINNERS 0.0000
-0.3010 VACUUM BAGS 0.0000
-0.3010 VANILLA EXTRACT 0.0000
-0.3010 VARIOUS GROCERIES 0.0000
-0.3010 VEGETABLE OIL 0.0000
-0.3010 VEGETABLES </s> -0.3010
-0.3010 VEGGIE BURGERS 0.0000
-0.3010 VEGGIES </s> -0.3010
-0.3010 VINEGAR </s> -0.3010
-0.3010 VINYL CHLORIDE 0.0000
-0.3010 VITAMINS </s> -0.3010
-0.3010 VODKA </s> -0.3010
-0.3010 WAFFLE MIX 0.0000
-0.3010 WASH </s> -0.3010
-0.3010 WAX PAPER -0.0969
-0.3010 WHIPPED CREAM -0.0669
-0.3010 WHISKEY </s> -0.3010
-0.3010 WHITE WINE 0.0000
-0.3010 WINE </s> -0.3010
-0.3010 WIPES </s> -0.3010
-0.3010 WORCESTERSHIRE SAUCE 0.0000
-0.3010 WRAP </s> -0.3010
-0.3010 YEAST </s> -0.3010
-0.3010 YOGURT </s> -0.3010
-0.3010 ZUCCHINI </s> -0.3010

\3-grams:
-2.8338 <s> BUY AIR
-2.8338 <s> BUY ALLERGY
-2.8338 <s> BUY ALUMINUM
-2.8338 <s> BUY ANTACID
-2.8338 <s> BUY ANTIBIOTIC
-2.8338 <s> BUY ANTIDIARRHEAL
-2.8338 <s> BUY ANTIPERSPIRANT
-2.8338 <s> BUY APPLES
-2.8338 <s> BUY APPLESAUCE
-2.8338 <s> BUY ARSENIC
-2.8338 <s> BUY ASBESTOS
-2.8338 <s> BUY ASPARAGUS
-2.8338 <s> BUY ASPIRIN
-2.8338 <s> BUY AUTOMOTIVE
-2.8338 <s> BUY AVOCADOS
-2.3567 <s> BUY BABY
-2.8338 <s> BUY BACON
-2.5328 <s> BUY BAGELS
-2.5328 <s> BUY BAKED
-2.5328 <s> BUY BAKING
-2.8338 <s> BUY BALLS
-2.8338 <s> BUY BANANAS
-2.8338 <s> BUY BAND
-2.8338 <s> BUY BAR
-2.8338 <s> BUY BASIL
-2.8338 <s> BUY BATH
-2.8338 <s> BUY BATHROOM
-2.8338 <s> BUY BATTERIES
-2.8338 <s> BUY BEEF
-2.8338 <s> BUY BEER
-2.8338 <s> BUY BERRIES
-2.8338 <s> BUY BEVERAGES
-2.8338 <s> BUY BLACK
-2.8338 <s> BUY BLEACH
-2.8338 <s> BUY BLEU
-2.8338 <s> BUY BOUILLON
-2.5328 <s> BUY BREAD
-2.8338 <s> BUY BREAKFASTS
-2.8338 <s> BUY BROCCOLI
-2.8338 <s> BUY BROTH
-2.8338 <s> BUY BROWNIE
-2.8338 <s> BUY BUNS
-2.8338 <s> BUY BURGER
-2.8338 <s> BUY BURRITOS
-2.8338 <s> BUY BUTTER
-2.3567 <s> BUY CAKE
-2.8338 <s> BUY CANDY
-2.8338 <s> BUY CANNED
-2.8338 <s> BUY CARCINOGENS
-2.8338 <s> BUY CARROTS
-2.5328 <s> BUY CAT
-2.8338 <s> BUY CATFISH
-2.8338 <s> BUY CAULIFLOWER
-2.8338 <s> BUY CDRS
-2.8338 <s> BUY CELERY
-2.8338 <s> BUY CEREAL
-2.8338 <s> BUY CHAMPAGNE
-2.8338 <s> BUY CHARCOAL
-2.8338 <s> BUY CHEDDAR
-2.8338 <s> BUY CHEESE
-2.8338 <s> BUY CHERRIES
-2.5328 <s> BUY CHICKEN
-2.5328 <s> BUY CHILI
-2.8338 <s> BUY CHIP
-2.8338 <s> BUY CHOCOLATE
-2.8338 <s> BUY CIGARETTES
-2.8338 <s> BUY CILANTRO
-2.8338 <s> BUY CINNAMON
-2.8338 <s> BUY CLEANING
-2.8338 <s> BUY CLUB
-2.8338 <s> BUY COCOA
-2.8338 <s> BUY COFFEE
-2.8338 <s> BUY CONDIMENTS
-2.8338 <s> BUY CONDITIONER
-2.8338 <s> BUY CONDOMS
-2.5328 <s> BUY COOKIES
-2.5328 <s> BUY CORN
-2.8338 <s> BUY COSMETICS
-2.8338 <s> BUY COTTAGE
-2.8338 <s> BUY COTTON
-2.8338 <s> BUY CRAB
-2.8338 <s> BUY CRACKERS
-2.8338 <s> BUY CREAM
-2.8338 <s> BUY CROISSANTS
-2.8338 <s> BUY CUCUMBERS
-2.8338 <s> BUY DAIRY
-2.8338 <s> BUY DEODORANT
-2.8338 <s> BUY DETERGENT
-2.8338 <s> BUY DIAPERS
-2.8338 <s> BUY DISH
-2.8338 <s> BUY DISHWASHER
-2.8338 <s> BUY DOG
-2.8338 <s> BUY DONUTS
-2.8338 <s> BUY DRIED
-2.8338 <s> BUY DVDRS
-2.8338 <s> BUY EGGS
-2.8338 <s> BUY ENGLISH
-2.8338 <s> BUY ENVELOPES
-2.5328 <s> BUY FACIAL
-2.8338 <s> BUY FAKE
-2.8338 <s> BUY FEMININE
-2.8338 <s> BUY FETA
-2.8338 <s> BUY FILTERS
-2.8338 <s> BUY FISH
-2.8338 <s> BUY FLEA
-2.8338 <s> BUY FLOSS
-2.8338 <s> BUY FLOUR
-2.8338 <s> BUY FLOWERS
-2.8338 <s> BUY FORMULA
-2.8338 <s> BUY FREEZER
-2.3567 <s> BUY FRESH
-2.8338 <s> BUY FRIES
-2.8338 <s> BUY FROZEN
-2.5328 <s> BUY FRUIT
-2.8338 <s> BUY GARBAGE
-2.8338 <s> BUY GARLIC
-2.8338 <s> BUY GIN
-2.8338 <s> BUY GINGER
-2.8338 <s> BUY GLASS
-2.8338 <s> BUY GLUE
-2.8338 <s> BUY GOAT
-2.8338 <s> BUY GRANOLA
-2.8338 <s> BUY GRAPEFRUIT
-2.8338 <s> BUY GRAPES
-2.8338 <s> BUY GRAVY
-2.8338 <s> BUY GREENS
-2.8338 <s> BUY GREETING
-2.8338 <s> BUY GROUND
-2.8338 <s> BUY GUM
-2.8338 <s> BUY HAIR
-2.8338 <s> BUY HALF
-2.8338 <s> BUY HAM
-2.8338 <s> BUY HAND
-2.8338 <s> BUY HEAVY
-2.8338 <s> BUY HERBS
-2.8338 <s> BUY HONEY
-2.5328 <s> BUY HOT
-2.8338 <s> BUY ICE
-2.8338 <s> BUY ICECREAM
-2.8338 <s> BUY INSECT
-2.8338 <s> BUY INSTANT
-2.8338 <s> BUY JAM
-2.8338 <s> BUY JELLY
-2.5328 <s> BUY JUICE
-2.8338 <s> BUY KETCHUP
-2.8338 <s> BUY KITCHEN
-2.8338 <s> BUY KIWIS
-2.8338 <s> BUY LEMON
-2.8338 <s> BUY LEMONS
-2.8338 <s> BUY LETTUCE
-2.8338 <s> BUY LIGHT
-2.8338 <s> BUY LIME
-2.8338 <s> BUY LIMES
-2.8338 <s> BUY LIP
-2.8338 <s> BUY LOBSTER
-2.8338 <s> BUY LOTION
-2.8338 <s> BUY LUNCHMEAT
-2.5328 <s> BUY MAC
-2.8338 <s> BUY MAGAZINE
-2.8338 <s> BUY MARGARINE
-2.8338 <s> BUY MAYONNAISE
-2.8338 <s> BUY MEAT
-2.8338 <s> BUY MEDICAL
-2.8338 <s> BUY MEDICINE
-2.8338 <s> BUY MELON
-2.8338 <s> BUY MILK
-2.8338 <s> BUY MINT
-2.8338 <s> BUY MIX
-2.8338 <s> BUY MIXERS
-2.8338 <s> BUY MOISTURIZING
-2.8338 <s> BUY MOP
-2.8338 <s> BUY MOUTHWASH
-2.8338 <s> BUY MOZZARELLA
-2.8338 <s> BUY MUSHROOMS
-2.8338 <s> BUY MUSSELS
-2.8338 <s> BUY MUSTARD
-2.8338 <s> BUY NAPKINS
-2.8338 <s> BUY NECTARINES
-2.8338 <s> BUY NEWSPAPER
-2.8338 <s> BUY NON-STICK
-2.8338 <s> BUY NOTEPAD
-2.8338 <s> BUY NUTS
-2.8338 <s> BUY OATMEAL
-2.8338 <s> BUY OFFICE
-2.8338 <s> BUY OLIVE
-2.8338 <s> BUY OLIVES
-2.8338 <s> BUY ONIONS
-2.8338 <s> BUY ORANGES
-2.8338 <s> BUY OREGANO
-2.8338 <s> BUY OTHER
-2.8338 <s> BUY OYSTERS
-2.8338 <s> BUY PACKAGED
-2.8338 <s> BUY PAIN
-2.8338 <s> BUY PANCAKE
-2.8338 <s> BUY PAPER
-2.8338 <s> BUY PAPRIKA
-2.8338 <s> BUY PARMESAN
-2.8338 <s> BUY PARSLEY
-2.5328 <s> BUY PASTA
-2.8338 <s> BUY PASTRIES
-2.8338 <s> BUY PEACHES
-2.8338 <s> BUY PEANUT
-2.8338 <s> BUY PEARS
-2.8338 <s> BUY PENCILS
-2.8338 <s> BUY PENS
-2.8338 <s> BUY PEPPERS
-2.8338 <s> BUY PET
-2.8338 <s> BUY PETS
-2.8338 <s> BUY PICKLES
-2.8338 <s> BUY PIE
-2.8338 <s> BUY PITA
-2.8338 <s> BUY PIZZA
-2.8338 <s> BUY PIZZAS
-2.8338 <s> BUY PLASTIC
-2.8338 <s> BUY PLUMS
-2.8338 <s> BUY POPCORN
-2.8338 <s> BUY POPSICLES
-2.8338 <s> BUY PORK
-2.8338 <s> BUY POSTAGE
-2.8338 <s> BUY POTATO
-2.8338 <s> BUY POTATOES
-2.8338 <s> BUY PRESCRIPTION
-2.8338 <s> BUY PRESERVES
-2.8338 <s> BUY PRETZELS
-2.8338 <s> BUY PRINTER
-2.8338 <s> BUY PROPANE
-2.8338 <s> BUY PROTECTION
-2.8338 <s> BUY PROVOLONE
-2.8338 <s> BUY RADIONUCLIDES
-2.8338 <s> BUY RAZORS
-2.8338 <s> BUY READY
-2.5328 <s> BUY RED
-2.8338 <s> BUY REFRIGERATED
-2.8338 <s> BUY RELISH
-2.8338 <s> BUY RICE
-2.8338 <s> BUY RICOTTA
-2.8338 <s> BUY ROLLS
-2.8338 <s> BUY RUM
-2.8338 <s> BUY SAKE
-2.8338 <s> BUY SALAD
-2.8338 <s> BUY SALMON
-2.8338 <s> BUY SALSA
-2.8338 <s> BUY SALT
-2.5328 <s> BUY SANDWICH
-2.8338 <s> BUY SAUCE
-2.8338 <s> BUY SAUSAGE
-2.8338 <s> BUY SCRUBBERS
-2.8338 <s> BUY SEAFOOD
-2.8338 <s> BUY SEEDS
-2.8338 <s> BUY SHAMPOO
-2.8338 <s> BUY SHAVING
-2.8338 <s> BUY SHORTENING
-2.8338 <s> BUY SHRIMP
-2.8338 <s> BUY SLICED
-2.8338 <s> BUY SNACKS
-2.5328 <s> BUY SODA
-2.8338 <s> BUY SORBET
-2.8338 <s> BUY SOUP
-2.8338 <s> BUY SOUR
-2.8338 <s> BUY SOY
-2.8338 <s> BUY SPAGHETTI
-2.8338 <s> BUY SPICES
-2.8338 <s> BUY SPINACH
-2.8338 <s> BUY SPONGES
-2.8338 <s> BUY SPORTS
-2.8338 <s> BUY SPRAY
-2.8338 <s> BUY SQUASH
-2.8338 <s> BUY STEAK
-2.5328 <s> BUY SUGAR
-2.8338 <s> BUY SUNBLOCK
-2.8338 <s> BUY SUPPLEMENTS
-2.8338 <s> BUY SWISS
-2.8338 <s> BUY SYRUP
-2.8338 <s> BUY T
-2.8338 <s> BUY TACO
-2.8338 <s> BUY TAKE-OUT
-2.8338 <s> BUY TAPE
-2.8338 <s> BUY TATER
-2.8338 <s> BUY TEA
-2.8338 <s> BUY THEMED
-2.8338 <s> BUY TILAPIA
-2.8338 <s> BUY TINNED
-2.8338 <s> BUY TOFU
-2.8338 <s> BUY TOILET
-2.5328 <s> BUY TOMATOES
-2.8338 <s> BUY TONIC
-2.8338 <s> BUY TOOTHPASTE
-2.8338 <s> BUY TORTILLAS
-2.8338 <s> BUY TREATS
-2.5328 <s> BUY TUNA
-2.5328 <s> BUY TURKEY
-2.8338 <s> BUY VACUUM
-2.8338 <s> BUY VANILLA
-2.8338 <s> BUY VARIOUS
-2.8338 <s> BUY VEGETABLE
-2.8338 <s> BUY VEGETABLES
-2.8338 <s> BUY VEGGIE
-2.8338 <s> BUY VEGGIES
-2.8338 <s> BUY VINEGAR
-2.8338 <s> BUY VINYL
-2.8338 <s> BUY VITAMINS
-2.8338 <s> BUY VODKA
-2.8338 <s> BUY WAFFLE
-2.8338 <s> BUY WAX
-2.8338 <s> BUY WHIPPED
-2.8338 <s> BUY WHISKEY
-2.8338 <s> BUY WHITE
-2.8338 <s> BUY WINE
-2.8338 <s> BUY WIPES
-2.8338 <s> BUY WORCESTERSHIRE
-2.8338 <s> BUY YEAST
-2.8338 <s> BUY YOGURT
-2.8338 <s> BUY ZUCCHINI
-0.3010 AIR FRESHENER </s>
-0.3010 ALUMINUM FOIL </s>
-0.3010 AN CHEESE </s>
-0.3010 AND CHEESE </s>
-0.3010 AND HALF </s>
-0.3010 BABY FOOD </s>
-0.3010 BABY STUFF </s>
-0.3010 BABY WASH </s>
-0.3010 BAKE BREADS </s>
-0.3010 BAKED BEANS </s>
-0.3010 BAKED GOODS </s>
-0.3010 BAKING POWDER </s>
-0.3010 BAND AIDS </s>
-0.3010 BAR BEE QUE
-0.3010 BATH SOAP </s>
-0.3010 BATHROOM CLEANER </s>
-0.3010 BEE QUE SAUCE
-0.3010 BLACK PEPPER </s>
-0.3010 BLEU CHEESE </s>
-0.3010 BOUILLON CUBES </s>
-0.3010 BREAD CRUMBS </s>
-0.3010 BROWNIE MIX </s>
-0.3010 BURGER NIGHT </s>
-0.3010 BUY AIR FRESHENER
-0.3010 BUY ALLERGY </s>
-0.3010 BUY ALUMINUM FOIL
-0.3010 BUY ANTACID </s>
-0.3010 BUY ANTIBIOTIC </s>
-0.3010 BUY ANTIDIARRHEAL </s>
-0.3010 BUY ANTIPERSPIRANT </s>
-0.3010 BUY APPLES </s>
-0.3010 BUY APPLESAUCE </s>
-0.3010 BUY ARSENIC </s>
-0.3010 BUY ASBESTOS </s>
-0.3010 BUY ASPARAGUS </s>
-0.3010 BUY ASPIRIN </s>
-0.3010 BUY AUTOMOTIVE </s>
-0.3010 BUY AVOCADOS </s>
-0.7782 BUY BABY FOOD
-0.7782 BUY BABY STUFF
-0.7782 BUY BABY WASH
-0.3010 BUY BACON </s>
-0.3010 BUY BAGELS </s>
-0.6021 BUY BAKED BEANS
-0.6021 BUY BAKED GOODS
-0.6021 BUY BAKING </s>
-0.6021 BUY BAKING POWDER
-0.3010 BUY BALLS </s>
-0.3010 BUY BANANAS </s>
-0.3010 BUY BAND AIDS
-0.3010 BUY BAR BEE
-0.3010 BUY BASIL </s>
-0.3010 BUY BATH SOAP
-0.3010 BUY BATHROOM CLEANER
-0.3010 BUY BATTERIES </s>
-0.3010 BUY BEEF </s>
-0.3010 BUY BEER </s>
-0.3010 BUY BERRIES </s>
-0.3010 BUY BEVERAGES </s>
-0.3010 BUY BLACK PEPPER
-0.3010 BUY BLEACH </s>
-0.3010 BUY BLEU CHEESE
-0.3010 BUY BOUILLON CUBES
-0.6021 BUY BREAD </s>
-0.6021 BUY BREAD CRUMBS
-0.3010 BUY BREAKFASTS </s>
-0.3010 BUY BROCCOLI </s>
-0.3010 BUY BROTH </s>
-0.3010 BUY BROWNIE MIX
-0.3010 BUY BUNS </s>
-0.3010 BUY BURGER NIGHT
-0.3010 BUY BURRITOS </s>
-0.3010 BUY BUTTER </s>
-0.4771 BUY CAKE </s>
-0.7782 BUY CAKE ICING
-0.3010 BUY CANDY </s>
-0.3010 BUY CANNED FOODS
-0.3010 BUY CARCINOGENS </s>
-0.3010 BUY CARROTS </s>
-0.6021 BUY CAT FOOD
-0.6021 BUY CAT LITTER
-0.3010 BUY CATFISH </s>
-0.3010 BUY CAULIFLOWER </s>
-0.3010 BUY CDRS </s>
-0.3010 BUY CELERY </s>
-0.3010 BUY CEREAL </s>
-0.3010 BUY CHAMPAGNE </s>
-0.3010 BUY CHARCOAL </s>
-0.3010 BUY CHEDDAR </s>
-0.3010 BUY CHEESE </s>
-0.3010 BUY CHERRIES </s>
-0.3010 BUY CHICKEN </s>
-0.6021 BUY CHILI </s>
-0.6021 BUY CHILI NIGHT
-0.3010 BUY CHIP DIP
-0.3010 BUY CHOCOLATE CHIPS
-0.3010 BUY CIGARETTES </s>
-0.3010 BUY CILANTRO </s>
-0.3010 BUY CINNAMON </s>
-0.3010 BUY CLEANING PRODUCTS
-0.3010 BUY CLUB SODA
-0.3010 BUY COCOA </s>
-0.3010 BUY COFFEE </s>
-0.3010 BUY CONDIMENTS </s>
-0.3010 BUY CONDITIONER </s>
-0.3010 BUY CONDOMS </s>
-0.3010 BUY COOKIES </s>
-0.6021 BUY CORN </s>
-0.6021 BUY CORN CHIPS
-0.3010 BUY COSMETICS </s>
-0.3010 BUY COTTAGE CHEESE
-0.3010 BUY COTTON SWABS
-0.3010 BUY CRAB </s>
-0.3010 BUY CRACKERS </s>
-0.3010 BUY CREAM CHEESE
-0.3010 BUY CROISSANTS </s>
-0.3010 BUY CUCUMBERS </s>
-0.3010 BUY DAIRY </s>
-0.3010 BUY DEODORANT </s>
-0.3010 BUY DETERGENT </s>
-0.3010 BUY DIAPERS </s>
-0.3010 BUY DISH </s>
-0.3010 BUY DISHWASHER SOAP
-0.3010 BUY DOG FOOD
-0.3010 BUY DONUTS </s>
-0.3010 BUY DRIED FRUIT
-0.3010 BUY DVDRS </s>
-0.3010 BUY EGGS </s>
-0.3010 BUY ENGLISH MUFFINS
-0.3010 BUY ENVELOPES </s>
-0.6021 BUY FACIAL CLEANSER
-0.6021 BUY FACIAL TISSUE
-0.3010 BUY FAKE EGGS
-0.3010 BUY FEMININE PRODUCTS
-0.3010 BUY FETA </s>
-0.3010 BUY FILTERS </s>
-0.3010 BUY FISH STICKS
-0.3010 BUY FLEA TREATMENT
-0.3010 BUY FLOSS </s>
-0.3010 BUY FLOUR </s>
-0.3010 BUY FLOWERS </s>
-0.3010 BUY FORMULA </s>
-0.3010 BUY FREEZER BAGS
-0.7782 BUY FRESH BREAD
-0.7782 BUY FRESH FRUITS
-0.7782 BUY FRESH VEGETABLES
-0.3010 BUY FRIES </s>
-0.3010 BUY FROZEN </s>
-0.6021 BUY FRUIT </s>
-0.6021 BUY FRUIT JUICE
-0.3010 BUY GARBAGE BAGS
-0.3010 BUY GARLIC </s>
-0.3010 BUY GIN </s>
-0.3010 BUY GINGER </s>
-0.3010 BUY GLASS CLEANER
-0.3010 BUY GLUE </s>
-0.3010 BUY GOAT CHEESE
-0.3010 BUY GRANOLA BARS
-0.3010 BUY GRAPEFRUIT </s>
-0.3010 BUY GRAPES </s>
-0.3010 BUY GRAVY </s>
-0.3010 BUY GREENS </s>
-0.3010 BUY GREETING CARD
-0.3010 BUY GROUND BEEF
-0.3010 BUY GUM </s>
-0.3010 BUY HAIR GEL
-0.3010 BUY HALF AND
-0.3010 BUY HAM </s>
-0.3010 BUY HAND SOAP
-0.3010 BUY HEAVY CREAM
-0.3010 BUY HERBS </s>
-0.3010 BUY HONEY </s>
-0.6021 BUY HOT DOGS
-0.6021 BUY HOT SAUCE
-0.3010 BUY ICE CREAM
-0.3010 BUY ICECREAM </s>
-0.3010 BUY INSECT REPELLENT
-0.3010 BUY INSTANT POTATOES
-0.3010 BUY JAM </s>
-0.3010 BUY JELLY </s>
-0.6021 BUY JUICE </s>
-0.6021 BUY JUICE CONCENTRATE
-0.3010 BUY KETCHUP </s>
-0.3010 BUY KITCHEN </s>
-0.3010 BUY KIWIS </s>
-0.3010 BUY LEMON </s>
-0.3010 BUY LEMONS </s>
-0.3010 BUY LETTUCE </s>
-0.3010 BUY LIGHT BULBS
-0.3010 BUY LIME JUICE
-0.3010 BUY LIMES </s>
-0.3010 BUY LIP BALM
-0.3010 BUY LOBSTER </s>
-0.3010 BUY LOTION </s>
-0.3010 BUY LUNCHMEAT </s>
-0.6021 BUY MAC AN
-0.6021 BUY MAC AND
-0.3010 BUY MAGAZINE </s>
-0.3010 BUY MARGARINE </s>
-0.3010 BUY MAYONNAISE </s>
-0.3010 BUY MEAT </s>
-0.3010 BUY MEDICAL </s>
-0.3010 BUY MEDICINE </s>
-0.3010 BUY MELON </s>
-0.3010 BUY MILK </s>
-0.3010 BUY MINT </s>
-0.3010 BUY MIX </s>
-0.3010 BUY MIXERS </s>
-0.3010 BUY MOISTURIZING LOTION
-0.3010 BUY MOP HEAD
-0.3010 BUY MOUTHWASH </s>
-0.3010 BUY MOZZARELLA </s>
-0.3010 BUY MUSHROOMS </s>
-0.3010 BUY MUSSELS </s>
-0.3010 BUY MUSTARD </s>
-0.3010 BUY NAPKINS </s>
-0.3010 BUY NECTARINES </s>
-0.3010 BUY NEWSPAPER </s>
-0.3010 BUY NON-STICK SPRAY
-0.3010 BUY NOTEPAD </s>
-0.3010 BUY NUTS </s>
-0.3010 BUY OATMEAL </s>
-0.3010 BUY OFFICE SUPPLIES
-0.3010 BUY OLIVE OIL
-0.3010 BUY OLIVES </s>
-0.3010 BUY ONIONS </s>
-0.3010 BUY ORANGES </s>
-0.3010 BUY OREGANO </s>
-0.3010 BUY OTHER STUFF
-0.3010 BUY OYSTERS </s>
-0.3010 BUY PACKAGED MEALS
-0.3010 BUY PAIN RELIEVER
-0.3010 BUY PANCAKE </s>
-0.3010 BUY PAPER TOWELS
-0.3010 BUY PAPRIKA </s>
-0.3010 BUY PARMESAN </s>
-0.3010 BUY PARSLEY </s>
-0.6021 BUY PASTA </s>
-0.6021 BUY PASTA SAUCE
-0.3010 BUY PASTRIES </s>
-0.3010 BUY PEACHES </s>
-0.3010 BUY PEANUT BUTTER
-0.3010 BUY PEARS </s>
-0.3010 BUY PENCILS </s>
-0.3010 BUY PENS </s>
-0.3010 BUY PEPPERS </s>
-0.3010 BUY PET SHAMPOO
-0.3010 BUY PETS </s>
-0.3010 BUY PICKLES </s>
-0.3010 BUY PIE </s>
-0.3010 BUY PITA BREAD
-0.3010 BUY PIZZA NIGHT
-0.3010 BUY PIZZAS </s>
-0.3010 BUY PLASTIC WRAP
-0.3010 BUY PLUMS </s>
-0.3010 BUY POPCORN </s>
-0.3010 BUY POPSICLES </s>
-0.3010 BUY PORK </s>
-0.3010 BUY POSTAGE STAMPS
-0.3010 BUY POTATO </s>
-0.3010 BUY POTATOES </s>
-0.3010 BUY PRESCRIPTION PICK-UP
-0.3010 BUY PRESERVES </s>
-0.3010 BUY PRETZELS </s>
-0.3010 BUY PRINTER PAPER
-0.3010 BUY PROPANE </s>
-0.3010 BUY PROTECTION </s>
-0.3010 BUY PROVOLONE </s>
-0.3010 BUY RADIONUCLIDES </s>
-0.3010 BUY RAZORS </s>
-0.3010 BUY READY BAKE
-0.6021 BUY RED PEPPER
-0.6021 BUY RED WINE
-0.3010 BUY REFRIGERATED ITEMS
-0.3010 BUY RELISH </s>
-0.3010 BUY RICE </s>
-0.3010 BUY RICOTTA </s>
-0.3010 BUY ROLLS </s>
-0.3010 BUY RUM </s>
-0.3010 BUY SAKE </s>
-0.3010 BUY SALAD DRESSING
-0.3010 BUY SALMON </s>
-0.3010 BUY SALSA </s>
-0.3010 BUY SALT </s>
-0.6021 BUY SANDWICH </s>
-0.6021 BUY SANDWICH SLICES
-0.3010 BUY SAUCE </s>
-0.3010 BUY SAUSAGE </s>
-0.3010 BUY SCRUBBERS </s>
-0.3010 BUY SEAFOOD </s>
-0.3010 BUY SEEDS </s>
-0.3010 BUY SHAMPOO </s>
-0.3010 BUY SHAVING CREAM
-0.3010 BUY SHORTENING </s>
-0.3010 BUY SHRIMP </s>
-0.3010 BUY SLICED BREAD
-0.3010 BUY SNACKS </s>
-0.6021 BUY SODA </s>
-0.6021 BUY SODA POP
-0.3010 BUY SORBET </s>
-0.3010 BUY SOUP </s>
-0.3010 BUY SOUR CREAM
-0.3010 BUY SOY SAUCE
-0.3010 BUY SPAGHETTI NIGHT
-0.3010 BUY SPICES </s>
-0.3010 BUY SPINACH </s>
-0.3010 BUY SPONGES </s>
-0.3010 BUY SPORTS DRINK
-0.3010 BUY SPRAY </s>
-0.3010 BUY SQUASH </s>
-0.3010 BUY STEAK SAUCE
-0.6021 BUY SUGAR </s>
-0.6021 BUY SUGAR SUBSTITUTE
-0.3010 BUY SUNBLOCK </s>
-0.3010 BUY SUPPLEMENTS </s>
-0.3010 BUY SWISS </s>
-0.3010 BUY SYRUP </s>
-0.3010 BUY T V
-0.3010 BUY TACO NIGHT
-0.3010 BUY TAKE-OUT DELI
-0.3010 BUY TAPE </s>
-0.3010 BUY TATER TOTS
-0.3010 BUY TEA </s>
-0.3010 BUY THEMED MEALS
-0.3010 BUY TILAPIA </s>
-0.3010 BUY TINNED MEATS
-0.3010 BUY TOFU </s>
-0.3010 BUY TOILET PAPER
-0.3010 BUY TOMATOES </s>
-0.3010 BUY TONIC </s>
-0.3010 BUY TOOTHPASTE </s>
-0.3010 BUY TORTILLAS </s>
-0.3010 BUY TREATS </s>
-0.3010 BUY TUNA </s>
-0.3010 BUY TURKEY </s>
-0.3010 BUY VACUUM BAGS
-0.3010 BUY VANILLA EXTRACT
-0.3010 BUY VARIOUS GROCERIES
-0.3010 BUY VEGETABLE OIL
-0.3010 BUY VEGETABLES </s>
-0.3010 BUY VEGGIE BURGERS
-0.3010 BUY VEGGIES </s>
-0.3010 BUY VINEGAR </s>
-0.3010 BUY VINYL CHLORIDE
-0.3010 BUY VITAMINS </s>
-0.3010 BUY VODKA </s>
-0.3010 BUY WAFFLE MIX
-0.3010 BUY WAX PAPER
-0.3010 BUY WHIPPED CREAM
-0.3010 BUY WHISKEY </s>
-0.3010 BUY WHITE WINE
-0.3010 BUY WINE </s>
-0.3010 BUY WIPES </s>
-0.3010 BUY WORCESTERSHIRE SAUCE
-0.3010 BUY YEAST </s>
-0.3010 BUY YOGURT </s>
-0.3010 BUY ZUCCHINI </s>
-0.3010 CAKE ICING </s>
-0.3010 CANNED FOODS </s>
-0.3010 CAT FOOD </s>
-0.3010 CAT LITTER </s>
-0.3010 CHILI NIGHT </s>
-0.3010 CHIP DIP </s>
-0.3010 CHOCOLATE CHIPS </s>
-0.3010 CLEANING PRODUCTS </s>
-0.3010 CLUB SODA </s>
-0.3010 CORN CHIPS </s>
-0.3010 COTTAGE CHEESE </s>
-0.3010 COTTON SWABS </s>
-0.3010 CREAM CHEESE </s>
-0.3010 DELI FOOD </s>
-0.3010 DISHWASHER SOAP </s>
-0.3010 DOG FOOD </s>
-0.3010 DRIED FRUIT </s>
-0.3010 ENGLISH MUFFINS </s>
-0.3010 FACIAL CLEANSER </s>
-0.3010 FACIAL TISSUE </s>
-0.3010 FAKE EGGS </s>
-0.3010 FEMININE PRODUCTS </s>
-0.3010 FISH STICKS </s>
-0.3010 FLEA TREATMENT </s>
-0.3010 FREEZER BAGS </s>
-0.3010 FRESH BREAD </s>
-0.3010 FRESH FRUITS </s>
-0.3010 FRESH VEGETABLES </s>
-0.3010 FRUIT JUICE </s>
-0.3010 GARBAGE BAGS </s>
-0.3010 GLASS CLEANER </s>
-0.3010 GOAT CHEESE </s>
-0.3010 GRANOLA BARS </s>
-0.3010 GREETING CARD </s>
-0.3010 GROUND BEEF </s>
-0.3010 HAIR GEL </s>
-0.3010 HALF AND HALF
-0.3010 HAND SOAP </s>
-0.3010 HEAVY CREAM </s>
-0.3010 HOT DOGS </s>
-0.3010 HOT SAUCE </s>
-0.3010 ICE CREAM </s>
-0.3010 INSECT REPELLENT </s>
-0.3010 INSTANT POTATOES </s>
-0.3010 JUICE CONCENTRATE </s>
-0.3010 LIGHT BULBS </s>
-0.3010 LIME JUICE </s>
-0.3010 LIP BALM </s>
-0.3010 MAC AN CHEESE
-0.3010 MAC AND CHEESE
-0.3010 MOISTURIZING LOTION </s>
-0.3010 MOP HEAD </s>
-0.3010 NON-STICK SPRAY </s>
-0.3010 OFFICE SUPPLIES </s>
-0.3010 OLIVE OIL </s>
-0.3010 OTHER STUFF </s>
-0.3010 PACKAGED MEALS </s>
-0.3010 PAIN RELIEVER </s>
-0.3010 PAPER TOWELS </s>
-0.3010 PASTA SAUCE </s>
-0.3010 PEANUT BUTTER </s>
-0.3010 PET SHAMPOO </s>
-0.3010 PITA BREAD </s>
-0.3010 PIZZA NIGHT </s>
-0.3010 PLASTIC WRAP </s>
-0.3010 POSTAGE STAMPS </s>
-0.3010 PRESCRIPTION PICK-UP </s>
-0.3010 PRINTER PAPER </s>
-0.3010 QUE SAUCE </s>
-0.3010 READY BAKE BREADS
-0.3010 RED PEPPER </s>
-0.3010 RED WINE </s>
-0.3010 REFRIGERATED ITEMS </s>
-0.3010 SALAD DRESSING </s>
-0.3010 SANDWICH SLICES </s>
-0.3010 SHAVING CREAM </s>
-0.3010 SLICED BREAD </s>
-0.3010 SODA POP </s>
-0.3010 SOUR CREAM </s>
-0.3010 SOY SAUCE </s>
-0.3010 SPAGHETTI NIGHT </s>
-0.3010 SPORTS DRINK </s>
-0.3010 STEAK SAUCE </s>
-0.3010 SUGAR SUBSTITUTE </s>
-0.3010 T V DINNERS
-0.3010 TACO NIGHT </s>
-0.3010 TAKE-OUT DELI FOOD
-0.3010 TATER TOTS </s>
-0.3010 THEMED MEALS </s>
-0.3010 TINNED MEATS </s>
-0.3010 TOILET PAPER </s>
-0.3010 V DINNERS </s>
-0.3010 VACUUM BAGS </s>
-0.3010 VANILLA EXTRACT </s>
-0.3010 VARIOUS GROCERIES </s>
-0.3010 VEGETABLE OIL </s>
-0.3010 VEGGIE BURGERS </s>
-0.3010 VINYL CHLORIDE </s>
-0.3010 WAFFLE MIX </s>
-0.3010 WAX PAPER </s>
-0.3010 WHIPPED CREAM </s>
-0.3010 WHITE WINE </s>
-0.3010 WORCESTERSHIRE SAUCE </s>

\end\
